digraph Tree {
node [shape=box, style="filled, rounded", color="black", fontname=helvetica] ;
edge [fontname=helvetica] ;
0 [label="AST <= 4.5\ngini = 0.64\nsamples = 2195\nvalue = [1036, 849, 1573]", fillcolor="#e3d3f9"] ;
1 [label="AS <= 6.5\ngini = 0.59\nsamples = 1172\nvalue = [334, 488, 1038]", fillcolor="#ccb0f5"] ;
0 -> 1 [labeldistance=2.5, labelangle=45, headlabel="True"] ;
2 [label="HF <= 14.5\ngini = 0.5\nsamples = 312\nvalue = [52, 113, 312]", fillcolor="#ba93f1"] ;
1 -> 2 ;
3 [label="AF <= 10.5\ngini = 0.48\nsamples = 278\nvalue = [46, 89, 289]", fillcolor="#b489ef"] ;
2 -> 3 ;
4 [label="(...)", fillcolor="#C0C0C0"] ;
3 -> 4 ;
91 [label="(...)", fillcolor="#C0C0C0"] ;
3 -> 91 ;
218 [label="HF <= 15.5\ngini = 0.59\nsamples = 34\nvalue = [6, 24, 23]", fillcolor="#f8fefb"] ;
2 -> 218 ;
219 [label="(...)", fillcolor="#C0C0C0"] ;
218 -> 219 ;
234 [label="(...)", fillcolor="#C0C0C0"] ;
218 -> 234 ;
251 [label="HST <= 4.5\ngini = 0.61\nsamples = 860\nvalue = [282, 375, 726]", fillcolor="#d3baf6"] ;
1 -> 251 ;
252 [label="HST <= 2.5\ngini = 0.67\nsamples = 391\nvalue = [201, 213, 225]", fillcolor="#fbf9fe"] ;
251 -> 252 ;
253 [label="(...)", fillcolor="#C0C0C0"] ;
252 -> 253 ;
392 [label="(...)", fillcolor="#C0C0C0"] ;
252 -> 392 ;
643 [label="HF <= 13.5\ngini = 0.49\nsamples = 469\nvalue = [81, 162, 501]", fillcolor="#b68cf0"] ;
251 -> 643 ;
644 [label="(...)", fillcolor="#C0C0C0"] ;
643 -> 644 ;
947 [label="(...)", fillcolor="#C0C0C0"] ;
643 -> 947 ;
1042 [label="AR <= 0.5\ngini = 0.64\nsamples = 1023\nvalue = [702, 361, 535]", fillcolor="#fbebe0"] ;
0 -> 1042 [labeldistance=2.5, labelangle=-45, headlabel="False"] ;
1043 [label="HR <= 0.5\ngini = 0.64\nsamples = 969\nvalue = [680, 337, 489]", fillcolor="#fae7da"] ;
1042 -> 1043 ;
1044 [label="HST <= 3.5\ngini = 0.64\nsamples = 898\nvalue = [605, 315, 471]", fillcolor="#fbede2"] ;
1043 -> 1044 ;
1045 [label="(...)", fillcolor="#C0C0C0"] ;
1044 -> 1045 ;
1250 [label="(...)", fillcolor="#C0C0C0"] ;
1044 -> 1250 ;
1883 [label="Month <= 1.5\ngini = 0.51\nsamples = 71\nvalue = [75, 22, 18]", fillcolor="#f0b78e"] ;
1043 -> 1883 ;
1884 [label="(...)", fillcolor="#C0C0C0"] ;
1883 -> 1884 ;
1889 [label="(...)", fillcolor="#C0C0C0"] ;
1883 -> 1889 ;
1938 [label="HS <= 14.5\ngini = 0.62\nsamples = 54\nvalue = [22, 24, 46]", fillcolor="#d6bff7"] ;
1042 -> 1938 ;
1939 [label="AF <= 10.5\ngini = 0.62\nsamples = 26\nvalue = [20, 8, 13]", fillcolor="#f8e0ce"] ;
1938 -> 1939 ;
1940 [label="(...)", fillcolor="#C0C0C0"] ;
1939 -> 1940 ;
1953 [label="(...)", fillcolor="#C0C0C0"] ;
1939 -> 1953 ;
1968 [label="AST <= 5.5\ngini = 0.48\nsamples = 28\nvalue = [2, 16, 33]", fillcolor="#c29ff2"] ;
1938 -> 1968 ;
1969 [label="(...)", fillcolor="#C0C0C0"] ;
1968 -> 1969 ;
1976 [label="(...)", fillcolor="#C0C0C0"] ;
1968 -> 1976 ;
}