digraph Tree {
node [shape=box, style="filled, rounded", color="black", fontname=helvetica] ;
edge [fontname=helvetica] ;
0 [label="HS <= 14.5\ngini = 0.64\nsamples = 2195\nvalue = [1036, 849, 1573]", fillcolor="#e3d3f9"] ;
1 [label="AST <= 4.5\ngini = 0.66\nsamples = 1302\nvalue = [760, 515, 770]", fillcolor="#fefdff"] ;
0 -> 1 [labeldistance=2.5, labelangle=45, headlabel="True"] ;
2 [label="Week <= 23.5\ngini = 0.63\nsamples = 609\nvalue = [216, 284, 469]", fillcolor="#ddcaf8"] ;
1 -> 2 ;
3 [label="0_home <= 0.5\ngini = 0.6\nsamples = 272\nvalue = [101, 105, 240]", fillcolor="#cdb1f5"] ;
2 -> 3 ;
4 [label="HC <= 0.5\ngini = 0.61\nsamples = 254\nvalue = [101, 96, 213]", fillcolor="#d1b7f6"] ;
3 -> 4 ;
5 [label="gini = 0.0\nsamples = 5\nvalue = [0, 6, 0]", fillcolor="#39e581"] ;
4 -> 5 ;
6 [label="AST <= 2.5\ngini = 0.61\nsamples = 249\nvalue = [101, 90, 213]", fillcolor="#d0b6f5"] ;
4 -> 6 ;
7 [label="5 <= 0.5\ngini = 0.44\nsamples = 78\nvalue = [13, 22, 88]", fillcolor="#ad7eee"] ;
6 -> 7 ;
8 [label="34_home <= 0.5\ngini = 0.42\nsamples = 77\nvalue = [10, 22, 88]", fillcolor="#aa7aed"] ;
7 -> 8 ;
9 [label="Day <= 8.5\ngini = 0.41\nsamples = 75\nvalue = [8, 22, 87]", fillcolor="#a978ed"] ;
8 -> 9 ;
10 [label="Month <= 1.5\ngini = 0.18\nsamples = 19\nvalue = [1, 2, 28]", fillcolor="#8e4de8"] ;
9 -> 10 ;
11 [label="22 <= 0.5\ngini = 0.44\nsamples = 4\nvalue = [0, 2, 4]", fillcolor="#c09cf2"] ;
10 -> 11 ;
12 [label="gini = 0.0\nsamples = 3\nvalue = [0, 0, 4]", fillcolor="#8139e5"] ;
11 -> 12 ;
13 [label="gini = 0.0\nsamples = 1\nvalue = [0, 2, 0]", fillcolor="#39e581"] ;
11 -> 13 ;
14 [label="HY <= 1.5\ngini = 0.08\nsamples = 15\nvalue = [1, 0, 24]", fillcolor="#8641e6"] ;
10 -> 14 ;
15 [label="gini = 0.0\nsamples = 11\nvalue = [0, 0, 18]", fillcolor="#8139e5"] ;
14 -> 15 ;
16 [label="Week <= 11.0\ngini = 0.24\nsamples = 4\nvalue = [1, 0, 6]", fillcolor="#965ae9"] ;
14 -> 16 ;
17 [label="gini = 0.0\nsamples = 3\nvalue = [0, 0, 6]", fillcolor="#8139e5"] ;
16 -> 17 ;
18 [label="gini = 0.0\nsamples = 1\nvalue = [1, 0, 0]", fillcolor="#e58139"] ;
16 -> 18 ;
19 [label="AC <= 5.5\ngini = 0.47\nsamples = 56\nvalue = [7, 20, 59]", fillcolor="#b58af0"] ;
9 -> 19 ;
20 [label="HC <= 11.5\ngini = 0.56\nsamples = 38\nvalue = [6, 18, 32]", fillcolor="#d1b6f5"] ;
19 -> 20 ;
21 [label="Week <= 4.5\ngini = 0.54\nsamples = 37\nvalue = [6, 15, 32]", fillcolor="#c7a6f3"] ;
20 -> 21 ;
22 [label="11 <= 0.5\ngini = 0.24\nsamples = 9\nvalue = [1, 1, 13]", fillcolor="#9355e9"] ;
21 -> 22 ;
23 [label="AC <= 2.5\ngini = 0.13\nsamples = 8\nvalue = [1, 0, 13]", fillcolor="#8b48e7"] ;
22 -> 23 ;
24 [label="Day <= 17.5\ngini = 0.24\nsamples = 4\nvalue = [1, 0, 6]", fillcolor="#965ae9"] ;
23 -> 24 ;
25 [label="gini = 0.0\nsamples = 1\nvalue = [1, 0, 0]", fillcolor="#e58139"] ;
24 -> 25 ;
26 [label="gini = 0.0\nsamples = 3\nvalue = [0, 0, 6]", fillcolor="#8139e5"] ;
24 -> 26 ;
27 [label="gini = 0.0\nsamples = 4\nvalue = [0, 0, 7]", fillcolor="#8139e5"] ;
23 -> 27 ;
28 [label="gini = 0.0\nsamples = 1\nvalue = [0, 1, 0]", fillcolor="#39e581"] ;
22 -> 28 ;
29 [label="7_home <= 0.5\ngini = 0.6\nsamples = 28\nvalue = [5, 14, 19]", fillcolor="#e5d6fa"] ;
21 -> 29 ;
30 [label="AF <= 10.5\ngini = 0.57\nsamples = 26\nvalue = [3, 14, 18]", fillcolor="#e7d9fa"] ;
29 -> 30 ;
31 [label="AR <= 0.5\ngini = 0.49\nsamples = 14\nvalue = [2, 4, 12]", fillcolor="#b78ef0"] ;
30 -> 31 ;
32 [label="AF <= 5.5\ngini = 0.46\nsamples = 13\nvalue = [2, 3, 12]", fillcolor="#ae80ee"] ;
31 -> 32 ;
33 [label="HY <= 0.5\ngini = 0.48\nsamples = 3\nvalue = [2, 0, 3]", fillcolor="#d5bdf6"] ;
32 -> 33 ;
34 [label="gini = 0.0\nsamples = 1\nvalue = [1, 0, 0]", fillcolor="#e58139"] ;
33 -> 34 ;
35 [label="13 <= 0.5\ngini = 0.38\nsamples = 2\nvalue = [1, 0, 3]", fillcolor="#ab7bee"] ;
33 -> 35 ;
36 [label="gini = 0.0\nsamples = 1\nvalue = [0, 0, 3]", fillcolor="#8139e5"] ;
35 -> 36 ;
37 [label="gini = 0.0\nsamples = 1\nvalue = [1, 0, 0]", fillcolor="#e58139"] ;
35 -> 37 ;
38 [label="31 <= 0.5\ngini = 0.38\nsamples = 10\nvalue = [0, 3, 9]", fillcolor="#ab7bee"] ;
32 -> 38 ;
39 [label="Day <= 19.5\ngini = 0.3\nsamples = 9\nvalue = [0, 2, 9]", fillcolor="#9d65eb"] ;
38 -> 39 ;
40 [label="gini = 0.0\nsamples = 4\nvalue = [0, 0, 4]", fillcolor="#8139e5"] ;
39 -> 40 ;
41 [label="17 <= 0.5\ngini = 0.41\nsamples = 5\nvalue = [0, 2, 5]", fillcolor="#b388ef"] ;
39 -> 41 ;
42 [label="17 <= 0.5\ngini = 0.32\nsamples = 3\nvalue = [0, 1, 4]", fillcolor="#a06aec"] ;
41 -> 42 ;
43 [label="12 <= 0.5\ngini = 0.38\nsamples = 2\nvalue = [0, 1, 3]", fillcolor="#ab7bee"] ;
42 -> 43 ;
44 [label="gini = 0.0\nsamples = 1\nvalue = [0, 0, 3]", fillcolor="#8139e5"] ;
43 -> 44 ;
45 [label="gini = 0.0\nsamples = 1\nvalue = [0, 1, 0]", fillcolor="#39e581"] ;
43 -> 45 ;
46 [label="gini = 0.0\nsamples = 1\nvalue = [0, 0, 1]", fillcolor="#8139e5"] ;
42 -> 46 ;
47 [label="HY <= 0.5\ngini = 0.5\nsamples = 2\nvalue = [0, 1, 1]", fillcolor="#ffffff"] ;
41 -> 47 ;
48 [label="gini = 0.0\nsamples = 1\nvalue = [0, 0, 1]", fillcolor="#8139e5"] ;
47 -> 48 ;
49 [label="gini = 0.0\nsamples = 1\nvalue = [0, 1, 0]", fillcolor="#39e581"] ;
47 -> 49 ;
50 [label="gini = 0.0\nsamples = 1\nvalue = [0, 1, 0]", fillcolor="#39e581"] ;
38 -> 50 ;
51 [label="gini = 0.0\nsamples = 1\nvalue = [0, 1, 0]", fillcolor="#39e581"] ;
31 -> 51 ;
52 [label="HST <= 6.5\ngini = 0.53\nsamples = 12\nvalue = [1, 10, 6]", fillcolor="#b7f6d1"] ;
30 -> 52 ;
53 [label="AF <= 18.0\ngini = 0.47\nsamples = 11\nvalue = [0, 10, 6]", fillcolor="#b0f5cd"] ;
52 -> 53 ;
54 [label="12_home <= 0.5\ngini = 0.28\nsamples = 9\nvalue = [0, 10, 2]", fillcolor="#61ea9a"] ;
53 -> 54 ;
55 [label="7 <= 0.5\ngini = 0.35\nsamples = 7\nvalue = [0, 7, 2]", fillcolor="#72eca5"] ;
54 -> 55 ;
56 [label="13 <= 0.5\ngini = 0.22\nsamples = 6\nvalue = [0, 7, 1]", fillcolor="#55e993"] ;
55 -> 56 ;
57 [label="gini = 0.0\nsamples = 5\nvalue = [0, 7, 0]", fillcolor="#39e581"] ;
56 -> 57 ;
58 [label="gini = 0.0\nsamples = 1\nvalue = [0, 0, 1]", fillcolor="#8139e5"] ;
56 -> 58 ;
59 [label="gini = 0.0\nsamples = 1\nvalue = [0, 0, 1]", fillcolor="#8139e5"] ;
55 -> 59 ;
60 [label="gini = 0.0\nsamples = 2\nvalue = [0, 3, 0]", fillcolor="#39e581"] ;
54 -> 60 ;
61 [label="gini = 0.0\nsamples = 2\nvalue = [0, 0, 4]", fillcolor="#8139e5"] ;
53 -> 61 ;
62 [label="gini = 0.0\nsamples = 1\nvalue = [1, 0, 0]", fillcolor="#e58139"] ;
52 -> 62 ;
63 [label="AY <= 1.5\ngini = 0.44\nsamples = 2\nvalue = [2, 0, 1]", fillcolor="#f2c09c"] ;
29 -> 63 ;
64 [label="gini = 0.0\nsamples = 1\nvalue = [0, 0, 1]", fillcolor="#8139e5"] ;
63 -> 64 ;
65 [label="gini = 0.0\nsamples = 1\nvalue = [2, 0, 0]", fillcolor="#e58139"] ;
63 -> 65 ;
66 [label="gini = 0.0\nsamples = 1\nvalue = [0, 3, 0]", fillcolor="#39e581"] ;
20 -> 66 ;
67 [label="13_home <= 0.5\ngini = 0.18\nsamples = 18\nvalue = [1, 2, 27]", fillcolor="#8e4ee8"] ;
19 -> 67 ;
68 [label="7 <= 0.5\ngini = 0.13\nsamples = 17\nvalue = [1, 1, 27]", fillcolor="#8a47e7"] ;
67 -> 68 ;
69 [label="HST <= 6.5\ngini = 0.07\nsamples = 16\nvalue = [0, 1, 27]", fillcolor="#8640e6"] ;
68 -> 69 ;
70 [label="gini = 0.0\nsamples = 12\nvalue = [0, 0, 23]", fillcolor="#8139e5"] ;
69 -> 70 ;
71 [label="AST <= 1.5\ngini = 0.32\nsamples = 4\nvalue = [0, 1, 4]", fillcolor="#a06aec"] ;
69 -> 71 ;
72 [label="gini = 0.0\nsamples = 2\nvalue = [0, 0, 3]", fillcolor="#8139e5"] ;
71 -> 72 ;
73 [label="28 <= 0.5\ngini = 0.5\nsamples = 2\nvalue = [0, 1, 1]", fillcolor="#ffffff"] ;
71 -> 73 ;
74 [label="gini = 0.0\nsamples = 1\nvalue = [0, 1, 0]", fillcolor="#39e581"] ;
73 -> 74 ;
75 [label="gini = 0.0\nsamples = 1\nvalue = [0, 0, 1]", fillcolor="#8139e5"] ;
73 -> 75 ;
76 [label="gini = 0.0\nsamples = 1\nvalue = [1, 0, 0]", fillcolor="#e58139"] ;
68 -> 76 ;
77 [label="gini = 0.0\nsamples = 1\nvalue = [0, 1, 0]", fillcolor="#39e581"] ;
67 -> 77 ;
78 [label="AF <= 14.5\ngini = 0.44\nsamples = 2\nvalue = [2, 0, 1]", fillcolor="#f2c09c"] ;
8 -> 78 ;
79 [label="gini = 0.0\nsamples = 1\nvalue = [2, 0, 0]", fillcolor="#e58139"] ;
78 -> 79 ;
80 [label="gini = 0.0\nsamples = 1\nvalue = [0, 0, 1]", fillcolor="#8139e5"] ;
78 -> 80 ;
81 [label="gini = 0.0\nsamples = 1\nvalue = [3, 0, 0]", fillcolor="#e58139"] ;
7 -> 81 ;
82 [label="AS <= 9.5\ngini = 0.65\nsamples = 171\nvalue = [88, 68, 125]", fillcolor="#e7d9fa"] ;
6 -> 82 ;
83 [label="16_home <= 0.5\ngini = 0.63\nsamples = 65\nvalue = [23, 36, 51]", fillcolor="#e5d7fa"] ;
82 -> 83 ;
84 [label="18 <= 0.5\ngini = 0.62\nsamples = 64\nvalue = [19, 36, 51]", fillcolor="#e4d5f9"] ;
83 -> 84 ;
85 [label="8 <= 0.5\ngini = 0.63\nsamples = 59\nvalue = [17, 36, 44]", fillcolor="#eee5fc"] ;
84 -> 85 ;
86 [label="10 <= 0.5\ngini = 0.63\nsamples = 58\nvalue = [17, 36, 40]", fillcolor="#f6f1fd"] ;
85 -> 86 ;
87 [label="9 <= 0.5\ngini = 0.62\nsamples = 56\nvalue = [15, 36, 40]", fillcolor="#f6f1fd"] ;
86 -> 87 ;
88 [label="AS <= 8.5\ngini = 0.62\nsamples = 55\nvalue = [14, 36, 40]", fillcolor="#f6f0fd"] ;
87 -> 88 ;
89 [label="35 <= 0.5\ngini = 0.63\nsamples = 38\nvalue = [12, 27, 20]", fillcolor="#dbfae8"] ;
88 -> 89 ;
90 [label="0 <= 0.5\ngini = 0.63\nsamples = 37\nvalue = [11, 27, 20]", fillcolor="#dbfae8"] ;
89 -> 90 ;
91 [label="HST <= 1.5\ngini = 0.63\nsamples = 33\nvalue = [9, 21, 20]", fillcolor="#f8fefb"] ;
90 -> 91 ;
92 [label="Day <= 17.5\ngini = 0.57\nsamples = 4\nvalue = [4, 2, 1]", fillcolor="#f5cdb0"] ;
91 -> 92 ;
93 [label="AF <= 9.5\ngini = 0.44\nsamples = 2\nvalue = [0, 2, 1]", fillcolor="#9cf2c0"] ;
92 -> 93 ;
94 [label="gini = 0.0\nsamples = 1\nvalue = [0, 2, 0]", fillcolor="#39e581"] ;
93 -> 94 ;
95 [label="gini = 0.0\nsamples = 1\nvalue = [0, 0, 1]", fillcolor="#8139e5"] ;
93 -> 95 ;
96 [label="gini = 0.0\nsamples = 2\nvalue = [4, 0, 0]", fillcolor="#e58139"] ;
92 -> 96 ;
97 [label="AY <= 3.5\ngini = 0.6\nsamples = 29\nvalue = [5, 19, 19]", fillcolor="#ffffff"] ;
91 -> 97 ;
98 [label="30 <= 0.5\ngini = 0.58\nsamples = 26\nvalue = [4, 19, 16]", fillcolor="#e5fcef"] ;
97 -> 98 ;
99 [label="Day <= 7.5\ngini = 0.54\nsamples = 24\nvalue = [2, 19, 15]", fillcolor="#d9fae7"] ;
98 -> 99 ;
100 [label="14 <= 0.5\ngini = 0.43\nsamples = 8\nvalue = [1, 2, 8]", fillcolor="#ab7bee"] ;
99 -> 100 ;
101 [label="AST <= 3.5\ngini = 0.46\nsamples = 7\nvalue = [1, 2, 7]", fillcolor="#b083ef"] ;
100 -> 101 ;
102 [label="gini = 0.0\nsamples = 3\nvalue = [0, 0, 4]", fillcolor="#8139e5"] ;
101 -> 102 ;
103 [label="HC <= 6.5\ngini = 0.61\nsamples = 4\nvalue = [1, 2, 3]", fillcolor="#e0cef8"] ;
101 -> 103 ;
104 [label="23 <= 0.5\ngini = 0.38\nsamples = 3\nvalue = [1, 0, 3]", fillcolor="#ab7bee"] ;
103 -> 104 ;
105 [label="22 <= 0.5\ngini = 0.5\nsamples = 2\nvalue = [1, 0, 1]", fillcolor="#ffffff"] ;
104 -> 105 ;
106 [label="gini = 0.0\nsamples = 1\nvalue = [0, 0, 1]", fillcolor="#8139e5"] ;
105 -> 106 ;
107 [label="gini = 0.0\nsamples = 1\nvalue = [1, 0, 0]", fillcolor="#e58139"] ;
105 -> 107 ;
108 [label="gini = 0.0\nsamples = 1\nvalue = [0, 0, 2]", fillcolor="#8139e5"] ;
104 -> 108 ;
109 [label="gini = 0.0\nsamples = 1\nvalue = [0, 2, 0]", fillcolor="#39e581"] ;
103 -> 109 ;
110 [label="gini = 0.0\nsamples = 1\nvalue = [0, 0, 1]", fillcolor="#8139e5"] ;
100 -> 110 ;
111 [label="36_home <= 0.5\ngini = 0.46\nsamples = 16\nvalue = [1, 17, 7]", fillcolor="#91f1b9"] ;
99 -> 111 ;
112 [label="Day <= 28.0\ngini = 0.47\nsamples = 15\nvalue = [1, 16, 7]", fillcolor="#96f1bc"] ;
111 -> 112 ;
113 [label="Week <= 18.0\ngini = 0.42\nsamples = 14\nvalue = [1, 16, 5]", fillcolor="#7feead"] ;
112 -> 113 ;
114 [label="HS <= 13.5\ngini = 0.34\nsamples = 12\nvalue = [1, 16, 3]", fillcolor="#68eb9f"] ;
113 -> 114 ;
115 [label="34 <= 0.5\ngini = 0.27\nsamples = 11\nvalue = [0, 16, 3]", fillcolor="#5eea99"] ;
114 -> 115 ;
116 [label="3 <= 0.5\ngini = 0.29\nsamples = 10\nvalue = [0, 14, 3]", fillcolor="#63eb9c"] ;
115 -> 116 ;
117 [label="HS <= 10.5\ngini = 0.22\nsamples = 9\nvalue = [0, 14, 2]", fillcolor="#55e993"] ;
116 -> 117 ;
118 [label="gini = 0.0\nsamples = 5\nvalue = [0, 10, 0]", fillcolor="#39e581"] ;
117 -> 118 ;
119 [label="22 <= 0.5\ngini = 0.44\nsamples = 4\nvalue = [0, 4, 2]", fillcolor="#9cf2c0"] ;
117 -> 119 ;
120 [label="gini = 0.0\nsamples = 3\nvalue = [0, 4, 0]", fillcolor="#39e581"] ;
119 -> 120 ;
121 [label="gini = 0.0\nsamples = 1\nvalue = [0, 0, 2]", fillcolor="#8139e5"] ;
119 -> 121 ;
122 [label="gini = 0.0\nsamples = 1\nvalue = [0, 0, 1]", fillcolor="#8139e5"] ;
116 -> 122 ;
123 [label="gini = 0.0\nsamples = 1\nvalue = [0, 2, 0]", fillcolor="#39e581"] ;
115 -> 123 ;
124 [label="gini = 0.0\nsamples = 1\nvalue = [1, 0, 0]", fillcolor="#e58139"] ;
114 -> 124 ;
125 [label="gini = 0.0\nsamples = 2\nvalue = [0, 0, 2]", fillcolor="#8139e5"] ;
113 -> 125 ;
126 [label="gini = 0.0\nsamples = 1\nvalue = [0, 0, 2]", fillcolor="#8139e5"] ;
112 -> 126 ;
127 [label="gini = 0.0\nsamples = 1\nvalue = [0, 1, 0]", fillcolor="#39e581"] ;
111 -> 127 ;
128 [label="35 <= 0.5\ngini = 0.44\nsamples = 2\nvalue = [2, 0, 1]", fillcolor="#f2c09c"] ;
98 -> 128 ;
129 [label="gini = 0.0\nsamples = 1\nvalue = [0, 0, 1]", fillcolor="#8139e5"] ;
128 -> 129 ;
130 [label="gini = 0.0\nsamples = 1\nvalue = [2, 0, 0]", fillcolor="#e58139"] ;
128 -> 130 ;
131 [label="AST <= 3.5\ngini = 0.38\nsamples = 3\nvalue = [1, 0, 3]", fillcolor="#ab7bee"] ;
97 -> 131 ;
132 [label="gini = 0.0\nsamples = 2\nvalue = [0, 0, 3]", fillcolor="#8139e5"] ;
131 -> 132 ;
133 [label="gini = 0.0\nsamples = 1\nvalue = [1, 0, 0]", fillcolor="#e58139"] ;
131 -> 133 ;
134 [label="Day <= 18.0\ngini = 0.38\nsamples = 4\nvalue = [2, 6, 0]", fillcolor="#7beeab"] ;
90 -> 134 ;
135 [label="gini = 0.0\nsamples = 2\nvalue = [0, 5, 0]", fillcolor="#39e581"] ;
134 -> 135 ;
136 [label="12_home <= 0.5\ngini = 0.44\nsamples = 2\nvalue = [2, 1, 0]", fillcolor="#f2c09c"] ;
134 -> 136 ;
137 [label="gini = 0.0\nsamples = 1\nvalue = [2, 0, 0]", fillcolor="#e58139"] ;
136 -> 137 ;
138 [label="gini = 0.0\nsamples = 1\nvalue = [0, 1, 0]", fillcolor="#39e581"] ;
136 -> 138 ;
139 [label="gini = 0.0\nsamples = 1\nvalue = [1, 0, 0]", fillcolor="#e58139"] ;
89 -> 139 ;
140 [label="AY <= 2.5\ngini = 0.5\nsamples = 17\nvalue = [2, 9, 20]", fillcolor="#c09cf2"] ;
88 -> 140 ;
141 [label="HS <= 9.0\ngini = 0.39\nsamples = 12\nvalue = [2, 3, 16]", fillcolor="#a470ec"] ;
140 -> 141 ;
142 [label="Week <= 21.0\ngini = 0.5\nsamples = 2\nvalue = [1, 1, 0]", fillcolor="#ffffff"] ;
141 -> 142 ;
143 [label="gini = 0.0\nsamples = 1\nvalue = [0, 1, 0]", fillcolor="#39e581"] ;
142 -> 143 ;
144 [label="gini = 0.0\nsamples = 1\nvalue = [1, 0, 0]", fillcolor="#e58139"] ;
142 -> 144 ;
145 [label="29_home <= 0.5\ngini = 0.28\nsamples = 10\nvalue = [1, 2, 16]", fillcolor="#975cea"] ;
141 -> 145 ;
146 [label="22 <= 0.5\ngini = 0.2\nsamples = 9\nvalue = [0, 2, 16]", fillcolor="#9152e8"] ;
145 -> 146 ;
147 [label="HY <= 2.0\ngini = 0.22\nsamples = 7\nvalue = [0, 2, 14]", fillcolor="#9355e9"] ;
146 -> 147 ;
148 [label="gini = 0.0\nsamples = 4\nvalue = [0, 0, 10]", fillcolor="#8139e5"] ;
147 -> 148 ;
149 [label="HST <= 5.5\ngini = 0.44\nsamples = 3\nvalue = [0, 2, 4]", fillcolor="#c09cf2"] ;
147 -> 149 ;
150 [label="gini = 0.0\nsamples = 1\nvalue = [0, 2, 0]", fillcolor="#39e581"] ;
149 -> 150 ;
151 [label="gini = 0.0\nsamples = 2\nvalue = [0, 0, 4]", fillcolor="#8139e5"] ;
149 -> 151 ;
152 [label="gini = 0.0\nsamples = 2\nvalue = [0, 0, 2]", fillcolor="#8139e5"] ;
146 -> 152 ;
153 [label="gini = 0.0\nsamples = 1\nvalue = [1, 0, 0]", fillcolor="#e58139"] ;
145 -> 153 ;
154 [label="Day <= 11.5\ngini = 0.48\nsamples = 5\nvalue = [0, 6, 4]", fillcolor="#bdf6d5"] ;
140 -> 154 ;
155 [label="gini = 0.0\nsamples = 2\nvalue = [0, 0, 4]", fillcolor="#8139e5"] ;
154 -> 155 ;
156 [label="gini = 0.0\nsamples = 3\nvalue = [0, 6, 0]", fillcolor="#39e581"] ;
154 -> 156 ;
157 [label="gini = 0.0\nsamples = 1\nvalue = [1, 0, 0]", fillcolor="#e58139"] ;
87 -> 157 ;
158 [label="gini = 0.0\nsamples = 2\nvalue = [2, 0, 0]", fillcolor="#e58139"] ;
86 -> 158 ;
159 [label="gini = 0.0\nsamples = 1\nvalue = [0, 0, 4]", fillcolor="#8139e5"] ;
85 -> 159 ;
160 [label="AS <= 8.0\ngini = 0.35\nsamples = 5\nvalue = [2, 0, 7]", fillcolor="#a572ec"] ;
84 -> 160 ;
161 [label="HF <= 12.0\ngini = 0.44\nsamples = 3\nvalue = [2, 0, 1]", fillcolor="#f2c09c"] ;
160 -> 161 ;
162 [label="gini = 0.0\nsamples = 2\nvalue = [2, 0, 0]", fillcolor="#e58139"] ;
161 -> 162 ;
163 [label="gini = 0.0\nsamples = 1\nvalue = [0, 0, 1]", fillcolor="#8139e5"] ;
161 -> 163 ;
164 [label="gini = 0.0\nsamples = 2\nvalue = [0, 0, 6]", fillcolor="#8139e5"] ;
160 -> 164 ;
165 [label="gini = 0.0\nsamples = 1\nvalue = [4, 0, 0]", fillcolor="#e58139"] ;
83 -> 165 ;
166 [label="15 <= 0.5\ngini = 0.63\nsamples = 106\nvalue = [65, 32, 74]", fillcolor="#f4eefd"] ;
82 -> 166 ;
167 [label="11 <= 0.5\ngini = 0.64\nsamples = 102\nvalue = [65, 32, 66]", fillcolor="#fefdff"] ;
166 -> 167 ;
168 [label="10 <= 0.5\ngini = 0.64\nsamples = 100\nvalue = [65, 32, 62]", fillcolor="#fefbf9"] ;
167 -> 168 ;
169 [label="AS <= 14.5\ngini = 0.65\nsamples = 95\nvalue = [55, 32, 61]", fillcolor="#f7f2fd"] ;
168 -> 169 ;
170 [label="12_home <= 0.5\ngini = 0.63\nsamples = 66\nvalue = [47, 19, 35]", fillcolor="#fae8db"] ;
169 -> 170 ;
171 [label="AF <= 7.5\ngini = 0.64\nsamples = 64\nvalue = [41, 19, 35]", fillcolor="#fcf2eb"] ;
170 -> 171 ;
172 [label="AY <= 1.5\ngini = 0.55\nsamples = 12\nvalue = [5, 3, 12]", fillcolor="#c4a3f3"] ;
171 -> 172 ;
173 [label="HF <= 10.5\ngini = 0.47\nsamples = 6\nvalue = [5, 0, 3]", fillcolor="#f5cdb0"] ;
172 -> 173 ;
174 [label="AST <= 3.5\ngini = 0.48\nsamples = 4\nvalue = [2, 0, 3]", fillcolor="#d5bdf6"] ;
173 -> 174 ;
175 [label="gini = 0.0\nsamples = 2\nvalue = [2, 0, 0]", fillcolor="#e58139"] ;
174 -> 175 ;
176 [label="gini = 0.0\nsamples = 2\nvalue = [0, 0, 3]", fillcolor="#8139e5"] ;
174 -> 176 ;
177 [label="gini = 0.0\nsamples = 2\nvalue = [3, 0, 0]", fillcolor="#e58139"] ;
173 -> 177 ;
178 [label="HY <= 2.5\ngini = 0.38\nsamples = 6\nvalue = [0, 3, 9]", fillcolor="#ab7bee"] ;
172 -> 178 ;
179 [label="3 <= 0.5\ngini = 0.18\nsamples = 5\nvalue = [0, 1, 9]", fillcolor="#8f4fe8"] ;
178 -> 179 ;
180 [label="HF <= 9.5\ngini = 0.24\nsamples = 4\nvalue = [0, 1, 6]", fillcolor="#965ae9"] ;
179 -> 180 ;
181 [label="gini = 0.0\nsamples = 3\nvalue = [0, 0, 6]", fillcolor="#8139e5"] ;
180 -> 181 ;
182 [label="gini = 0.0\nsamples = 1\nvalue = [0, 1, 0]", fillcolor="#39e581"] ;
180 -> 182 ;
183 [label="gini = 0.0\nsamples = 1\nvalue = [0, 0, 3]", fillcolor="#8139e5"] ;
179 -> 183 ;
184 [label="gini = 0.0\nsamples = 1\nvalue = [0, 2, 0]", fillcolor="#39e581"] ;
178 -> 184 ;
185 [label="11 <= 0.5\ngini = 0.63\nsamples = 52\nvalue = [36, 16, 23]", fillcolor="#f8e0ce"] ;
171 -> 185 ;
186 [label="HST <= 2.5\ngini = 0.64\nsamples = 48\nvalue = [32, 16, 23]", fillcolor="#fae7da"] ;
185 -> 186 ;
187 [label="6 <= 0.5\ngini = 0.3\nsamples = 9\nvalue = [14, 2, 1]", fillcolor="#ea9a61"] ;
186 -> 187 ;
188 [label="30 <= 0.5\ngini = 0.12\nsamples = 8\nvalue = [14, 0, 1]", fillcolor="#e78a47"] ;
187 -> 188 ;
189 [label="gini = 0.0\nsamples = 7\nvalue = [14, 0, 0]", fillcolor="#e58139"] ;
188 -> 189 ;
190 [label="gini = 0.0\nsamples = 1\nvalue = [0, 0, 1]", fillcolor="#8139e5"] ;
188 -> 190 ;
191 [label="gini = 0.0\nsamples = 1\nvalue = [0, 2, 0]", fillcolor="#39e581"] ;
187 -> 191 ;
192 [label="1 <= 0.5\ngini = 0.66\nsamples = 39\nvalue = [18, 14, 22]", fillcolor="#f1e9fc"] ;
186 -> 192 ;
193 [label="AST <= 3.5\ngini = 0.65\nsamples = 38\nvalue = [18, 12, 22]", fillcolor="#f0e8fc"] ;
192 -> 193 ;
194 [label="HY <= 3.5\ngini = 0.57\nsamples = 17\nvalue = [4, 5, 13]", fillcolor="#c4a2f3"] ;
193 -> 194 ;
195 [label="HS <= 13.5\ngini = 0.52\nsamples = 16\nvalue = [4, 3, 13]", fillcolor="#b890f0"] ;
194 -> 195 ;
196 [label="HS <= 11.5\ngini = 0.4\nsamples = 13\nvalue = [1, 3, 12]", fillcolor="#a876ed"] ;
195 -> 196 ;
197 [label="13 <= 0.5\ngini = 0.44\nsamples = 8\nvalue = [0, 3, 6]", fillcolor="#c09cf2"] ;
196 -> 197 ;
198 [label="HY <= 1.5\ngini = 0.49\nsamples = 7\nvalue = [0, 3, 4]", fillcolor="#e0cef8"] ;
197 -> 198 ;
199 [label="13 <= 0.5\ngini = 0.38\nsamples = 4\nvalue = [0, 3, 1]", fillcolor="#7beeab"] ;
198 -> 199 ;
200 [label="gini = 0.0\nsamples = 3\nvalue = [0, 3, 0]", fillcolor="#39e581"] ;
199 -> 200 ;
201 [label="gini = 0.0\nsamples = 1\nvalue = [0, 0, 1]", fillcolor="#8139e5"] ;
199 -> 201 ;
202 [label="gini = 0.0\nsamples = 3\nvalue = [0, 0, 3]", fillcolor="#8139e5"] ;
198 -> 202 ;
203 [label="gini = 0.0\nsamples = 1\nvalue = [0, 0, 2]", fillcolor="#8139e5"] ;
197 -> 203 ;
204 [label="Week <= 1.5\ngini = 0.24\nsamples = 5\nvalue = [1, 0, 6]", fillcolor="#965ae9"] ;
196 -> 204 ;
205 [label="gini = 0.0\nsamples = 1\nvalue = [1, 0, 0]", fillcolor="#e58139"] ;
204 -> 205 ;
206 [label="gini = 0.0\nsamples = 4\nvalue = [0, 0, 6]", fillcolor="#8139e5"] ;
204 -> 206 ;
207 [label="Day <= 8.0\ngini = 0.38\nsamples = 3\nvalue = [3, 0, 1]", fillcolor="#eeab7b"] ;
195 -> 207 ;
208 [label="gini = 0.0\nsamples = 1\nvalue = [0, 0, 1]", fillcolor="#8139e5"] ;
207 -> 208 ;
209 [label="gini = 0.0\nsamples = 2\nvalue = [3, 0, 0]", fillcolor="#e58139"] ;
207 -> 209 ;
210 [label="gini = 0.0\nsamples = 1\nvalue = [0, 2, 0]", fillcolor="#39e581"] ;
194 -> 210 ;
211 [label="30 <= 0.5\ngini = 0.64\nsamples = 21\nvalue = [14, 7, 9]", fillcolor="#f9e1d0"] ;
193 -> 211 ;
212 [label="33 <= 0.5\ngini = 0.63\nsamples = 20\nvalue = [14, 7, 8]", fillcolor="#f8dbc6"] ;
211 -> 212 ;
213 [label="1_home <= 0.5\ngini = 0.61\nsamples = 19\nvalue = [14, 5, 8]", fillcolor="#f7d7c0"] ;
212 -> 213 ;
214 [label="AY <= 2.5\ngini = 0.57\nsamples = 17\nvalue = [14, 5, 5]", fillcolor="#f3c3a1"] ;
213 -> 214 ;
215 [label="34 <= 0.5\ngini = 0.52\nsamples = 16\nvalue = [14, 3, 5]", fillcolor="#f1bc96"] ;
214 -> 215 ;
216 [label="HST <= 6.5\ngini = 0.48\nsamples = 14\nvalue = [13, 3, 3]", fillcolor="#efb083"] ;
215 -> 216 ;
217 [label="15_home <= 0.5\ngini = 0.44\nsamples = 13\nvalue = [13, 2, 3]", fillcolor="#eeab7b"] ;
216 -> 217 ;
218 [label="HST <= 3.5\ngini = 0.32\nsamples = 11\nvalue = [13, 1, 2]", fillcolor="#eb9c63"] ;
217 -> 218 ;
219 [label="gini = 0.0\nsamples = 3\nvalue = [5, 0, 0]", fillcolor="#e58139"] ;
218 -> 219 ;
220 [label="28_home <= 0.5\ngini = 0.43\nsamples = 8\nvalue = [8, 1, 2]", fillcolor="#eeab7b"] ;
218 -> 220 ;
221 [label="HS <= 13.5\ngini = 0.34\nsamples = 7\nvalue = [8, 1, 1]", fillcolor="#eb9d65"] ;
220 -> 221 ;
222 [label="13_home <= 0.5\ngini = 0.2\nsamples = 6\nvalue = [8, 1, 0]", fillcolor="#e89152"] ;
221 -> 222 ;
223 [label="37 <= 0.5\ngini = 0.24\nsamples = 5\nvalue = [6, 1, 0]", fillcolor="#e9965a"] ;
222 -> 223 ;
224 [label="HC <= 5.5\ngini = 0.32\nsamples = 4\nvalue = [4, 1, 0]", fillcolor="#eca06a"] ;
223 -> 224 ;
225 [label="19 <= 0.5\ngini = 0.5\nsamples = 2\nvalue = [1, 1, 0]", fillcolor="#ffffff"] ;
224 -> 225 ;
226 [label="gini = 0.0\nsamples = 1\nvalue = [0, 1, 0]", fillcolor="#39e581"] ;
225 -> 226 ;
227 [label="gini = 0.0\nsamples = 1\nvalue = [1, 0, 0]", fillcolor="#e58139"] ;
225 -> 227 ;
228 [label="gini = 0.0\nsamples = 2\nvalue = [3, 0, 0]", fillcolor="#e58139"] ;
224 -> 228 ;
229 [label="gini = 0.0\nsamples = 1\nvalue = [2, 0, 0]", fillcolor="#e58139"] ;
223 -> 229 ;
230 [label="gini = 0.0\nsamples = 1\nvalue = [2, 0, 0]", fillcolor="#e58139"] ;
222 -> 230 ;
231 [label="gini = 0.0\nsamples = 1\nvalue = [0, 0, 1]", fillcolor="#8139e5"] ;
221 -> 231 ;
232 [label="gini = 0.0\nsamples = 1\nvalue = [0, 0, 1]", fillcolor="#8139e5"] ;
220 -> 232 ;
233 [label="21 <= 0.5\ngini = 0.5\nsamples = 2\nvalue = [0, 1, 1]", fillcolor="#ffffff"] ;
217 -> 233 ;
234 [label="gini = 0.0\nsamples = 1\nvalue = [0, 1, 0]", fillcolor="#39e581"] ;
233 -> 234 ;
235 [label="gini = 0.0\nsamples = 1\nvalue = [0, 0, 1]", fillcolor="#8139e5"] ;
233 -> 235 ;
236 [label="gini = 0.0\nsamples = 1\nvalue = [0, 1, 0]", fillcolor="#39e581"] ;
216 -> 236 ;
237 [label="HS <= 13.0\ngini = 0.44\nsamples = 2\nvalue = [1, 0, 2]", fillcolor="#c09cf2"] ;
215 -> 237 ;
238 [label="gini = 0.0\nsamples = 1\nvalue = [0, 0, 2]", fillcolor="#8139e5"] ;
237 -> 238 ;
239 [label="gini = 0.0\nsamples = 1\nvalue = [1, 0, 0]", fillcolor="#e58139"] ;
237 -> 239 ;
240 [label="gini = 0.0\nsamples = 1\nvalue = [0, 2, 0]", fillcolor="#39e581"] ;
214 -> 240 ;
241 [label="gini = 0.0\nsamples = 2\nvalue = [0, 0, 3]", fillcolor="#8139e5"] ;
213 -> 241 ;
242 [label="gini = 0.0\nsamples = 1\nvalue = [0, 2, 0]", fillcolor="#39e581"] ;
212 -> 242 ;
243 [label="gini = 0.0\nsamples = 1\nvalue = [0, 0, 1]", fillcolor="#8139e5"] ;
211 -> 243 ;
244 [label="gini = 0.0\nsamples = 1\nvalue = [0, 2, 0]", fillcolor="#39e581"] ;
192 -> 244 ;
245 [label="gini = 0.0\nsamples = 4\nvalue = [4, 0, 0]", fillcolor="#e58139"] ;
185 -> 245 ;
246 [label="gini = 0.0\nsamples = 2\nvalue = [6, 0, 0]", fillcolor="#e58139"] ;
170 -> 246 ;
247 [label="7_home <= 0.5\ngini = 0.59\nsamples = 29\nvalue = [8, 13, 26]", fillcolor="#cfb3f5"] ;
169 -> 247 ;
248 [label="30_home <= 0.5\ngini = 0.61\nsamples = 27\nvalue = [8, 13, 23]", fillcolor="#d6bff7"] ;
247 -> 248 ;
249 [label="HF <= 11.5\ngini = 0.59\nsamples = 26\nvalue = [8, 10, 23]", fillcolor="#caacf4"] ;
248 -> 249 ;
250 [label="1 <= 0.5\ngini = 0.49\nsamples = 16\nvalue = [3, 7, 20]", fillcolor="#b88ff0"] ;
249 -> 250 ;
251 [label="HF <= 4.5\ngini = 0.43\nsamples = 14\nvalue = [3, 4, 19]", fillcolor="#a978ed"] ;
250 -> 251 ;
252 [label="gini = 0.0\nsamples = 1\nvalue = [2, 0, 0]", fillcolor="#e58139"] ;
251 -> 252 ;
253 [label="HS <= 11.5\ngini = 0.34\nsamples = 13\nvalue = [1, 4, 19]", fillcolor="#a06aec"] ;
251 -> 253 ;
254 [label="7 <= 0.5\ngini = 0.24\nsamples = 11\nvalue = [0, 3, 19]", fillcolor="#9558e9"] ;
253 -> 254 ;
255 [label="HST <= 1.5\ngini = 0.17\nsamples = 10\nvalue = [0, 2, 19]", fillcolor="#8e4ee8"] ;
254 -> 255 ;
256 [label="gini = 0.0\nsamples = 2\nvalue = [0, 2, 0]", fillcolor="#39e581"] ;
255 -> 256 ;
257 [label="gini = 0.0\nsamples = 8\nvalue = [0, 0, 19]", fillcolor="#8139e5"] ;
255 -> 257 ;
258 [label="gini = 0.0\nsamples = 1\nvalue = [0, 1, 0]", fillcolor="#39e581"] ;
254 -> 258 ;
259 [label="Month <= 3.5\ngini = 0.5\nsamples = 2\nvalue = [1, 1, 0]", fillcolor="#ffffff"] ;
253 -> 259 ;
260 [label="gini = 0.0\nsamples = 1\nvalue = [1, 0, 0]", fillcolor="#e58139"] ;
259 -> 260 ;
261 [label="gini = 0.0\nsamples = 1\nvalue = [0, 1, 0]", fillcolor="#39e581"] ;
259 -> 261 ;
262 [label="AR <= 0.5\ngini = 0.38\nsamples = 2\nvalue = [0, 3, 1]", fillcolor="#7beeab"] ;
250 -> 262 ;
263 [label="gini = 0.0\nsamples = 1\nvalue = [0, 0, 1]", fillcolor="#8139e5"] ;
262 -> 263 ;
264 [label="gini = 0.0\nsamples = 1\nvalue = [0, 3, 0]", fillcolor="#39e581"] ;
262 -> 264 ;
265 [label="Month <= 1.5\ngini = 0.64\nsamples = 10\nvalue = [5, 3, 3]", fillcolor="#f8e0ce"] ;
249 -> 265 ;
266 [label="AST <= 3.5\ngini = 0.44\nsamples = 3\nvalue = [0, 2, 1]", fillcolor="#9cf2c0"] ;
265 -> 266 ;
267 [label="AF <= 8.5\ngini = 0.5\nsamples = 2\nvalue = [0, 1, 1]", fillcolor="#ffffff"] ;
266 -> 267 ;
268 [label="gini = 0.0\nsamples = 1\nvalue = [0, 1, 0]", fillcolor="#39e581"] ;
267 -> 268 ;
269 [label="gini = 0.0\nsamples = 1\nvalue = [0, 0, 1]", fillcolor="#8139e5"] ;
267 -> 269 ;
270 [label="gini = 0.0\nsamples = 1\nvalue = [0, 1, 0]", fillcolor="#39e581"] ;
266 -> 270 ;
271 [label="16_home <= 0.5\ngini = 0.53\nsamples = 7\nvalue = [5, 1, 2]", fillcolor="#f2c09c"] ;
265 -> 271 ;
272 [label="35 <= 0.5\ngini = 0.41\nsamples = 6\nvalue = [5, 0, 2]", fillcolor="#efb388"] ;
271 -> 272 ;
273 [label="HS <= 10.5\ngini = 0.28\nsamples = 5\nvalue = [5, 0, 1]", fillcolor="#ea9a61"] ;
272 -> 273 ;
274 [label="gini = 0.0\nsamples = 3\nvalue = [3, 0, 0]", fillcolor="#e58139"] ;
273 -> 274 ;
275 [label="AY <= 1.0\ngini = 0.44\nsamples = 2\nvalue = [2, 0, 1]", fillcolor="#f2c09c"] ;
273 -> 275 ;
276 [label="gini = 0.0\nsamples = 1\nvalue = [2, 0, 0]", fillcolor="#e58139"] ;
275 -> 276 ;
277 [label="gini = 0.0\nsamples = 1\nvalue = [0, 0, 1]", fillcolor="#8139e5"] ;
275 -> 277 ;
278 [label="gini = 0.0\nsamples = 1\nvalue = [0, 0, 1]", fillcolor="#8139e5"] ;
272 -> 278 ;
279 [label="gini = 0.0\nsamples = 1\nvalue = [0, 1, 0]", fillcolor="#39e581"] ;
271 -> 279 ;
280 [label="gini = 0.0\nsamples = 1\nvalue = [0, 3, 0]", fillcolor="#39e581"] ;
248 -> 280 ;
281 [label="gini = 0.0\nsamples = 2\nvalue = [0, 0, 3]", fillcolor="#8139e5"] ;
247 -> 281 ;
282 [label="22_home <= 0.5\ngini = 0.17\nsamples = 5\nvalue = [10, 0, 1]", fillcolor="#e88e4d"] ;
168 -> 282 ;
283 [label="gini = 0.0\nsamples = 4\nvalue = [10, 0, 0]", fillcolor="#e58139"] ;
282 -> 283 ;
284 [label="gini = 0.0\nsamples = 1\nvalue = [0, 0, 1]", fillcolor="#8139e5"] ;
282 -> 284 ;
285 [label="gini = 0.0\nsamples = 2\nvalue = [0, 0, 4]", fillcolor="#8139e5"] ;
167 -> 285 ;
286 [label="gini = 0.0\nsamples = 4\nvalue = [0, 0, 8]", fillcolor="#8139e5"] ;
166 -> 286 ;
287 [label="19 <= 0.5\ngini = 0.38\nsamples = 18\nvalue = [0, 9, 27]", fillcolor="#ab7bee"] ;
3 -> 287 ;
288 [label="HS <= 11.5\ngini = 0.33\nsamples = 17\nvalue = [0, 7, 27]", fillcolor="#a26cec"] ;
287 -> 288 ;
289 [label="gini = 0.0\nsamples = 5\nvalue = [0, 0, 10]", fillcolor="#8139e5"] ;
288 -> 289 ;
290 [label="Month <= 2.5\ngini = 0.41\nsamples = 12\nvalue = [0, 7, 17]", fillcolor="#b58bf0"] ;
288 -> 290 ;
291 [label="gini = 0.0\nsamples = 5\nvalue = [0, 0, 12]", fillcolor="#8139e5"] ;
290 -> 291 ;
292 [label="AF <= 13.0\ngini = 0.49\nsamples = 7\nvalue = [0, 7, 5]", fillcolor="#c6f8db"] ;
290 -> 292 ;
293 [label="HST <= 3.5\ngini = 0.42\nsamples = 6\nvalue = [0, 7, 3]", fillcolor="#8ef0b7"] ;
292 -> 293 ;
294 [label="gini = 0.0\nsamples = 1\nvalue = [0, 0, 2]", fillcolor="#8139e5"] ;
293 -> 294 ;
295 [label="35 <= 0.5\ngini = 0.22\nsamples = 5\nvalue = [0, 7, 1]", fillcolor="#55e993"] ;
293 -> 295 ;
296 [label="gini = 0.0\nsamples = 4\nvalue = [0, 7, 0]", fillcolor="#39e581"] ;
295 -> 296 ;
297 [label="gini = 0.0\nsamples = 1\nvalue = [0, 0, 1]", fillcolor="#8139e5"] ;
295 -> 297 ;
298 [label="gini = 0.0\nsamples = 1\nvalue = [0, 0, 2]", fillcolor="#8139e5"] ;
292 -> 298 ;
299 [label="gini = 0.0\nsamples = 1\nvalue = [0, 2, 0]", fillcolor="#39e581"] ;
287 -> 299 ;
300 [label="AF <= 13.5\ngini = 0.64\nsamples = 337\nvalue = [115, 179, 229]", fillcolor="#ede2fb"] ;
2 -> 300 ;
301 [label="HST <= 3.5\ngini = 0.65\nsamples = 250\nvalue = [101, 120, 159]", fillcolor="#ece1fb"] ;
300 -> 301 ;
302 [label="HY <= 0.5\ngini = 0.66\nsamples = 119\nvalue = [66, 68, 49]", fillcolor="#fcfffd"] ;
301 -> 302 ;
303 [label="7 <= 0.5\ngini = 0.49\nsamples = 21\nvalue = [24, 4, 8]", fillcolor="#f0b78e"] ;
302 -> 303 ;
304 [label="Day <= 27.5\ngini = 0.5\nsamples = 20\nvalue = [23, 4, 8]", fillcolor="#f1b991"] ;
303 -> 304 ;
305 [label="22_home <= 0.5\ngini = 0.44\nsamples = 17\nvalue = [21, 4, 4]", fillcolor="#eda978"] ;
304 -> 305 ;
306 [label="35 <= 0.5\ngini = 0.49\nsamples = 16\nvalue = [17, 4, 4]", fillcolor="#efb184"] ;
305 -> 306 ;
307 [label="Day <= 4.5\ngini = 0.42\nsamples = 15\nvalue = [17, 4, 2]", fillcolor="#eda978"] ;
306 -> 307 ;
308 [label="AC <= 8.5\ngini = 0.67\nsamples = 5\nvalue = [2, 2, 2]", fillcolor="#ffffff"] ;
307 -> 308 ;
309 [label="HS <= 6.5\ngini = 0.5\nsamples = 4\nvalue = [2, 2, 0]", fillcolor="#ffffff"] ;
308 -> 309 ;
310 [label="gini = 0.0\nsamples = 1\nvalue = [0, 1, 0]", fillcolor="#39e581"] ;
309 -> 310 ;
311 [label="AST <= 3.5\ngini = 0.44\nsamples = 3\nvalue = [2, 1, 0]", fillcolor="#f2c09c"] ;
309 -> 311 ;
312 [label="gini = 0.0\nsamples = 2\nvalue = [2, 0, 0]", fillcolor="#e58139"] ;
311 -> 312 ;
313 [label="gini = 0.0\nsamples = 1\nvalue = [0, 1, 0]", fillcolor="#39e581"] ;
311 -> 313 ;
314 [label="gini = 0.0\nsamples = 1\nvalue = [0, 0, 2]", fillcolor="#8139e5"] ;
308 -> 314 ;
315 [label="HS <= 11.5\ngini = 0.21\nsamples = 10\nvalue = [15, 2, 0]", fillcolor="#e89253"] ;
307 -> 315 ;
316 [label="gini = 0.0\nsamples = 6\nvalue = [12, 0, 0]", fillcolor="#e58139"] ;
315 -> 316 ;
317 [label="10 <= 0.5\ngini = 0.48\nsamples = 4\nvalue = [3, 2, 0]", fillcolor="#f6d5bd"] ;
315 -> 317 ;
318 [label="Week <= 40.0\ngini = 0.38\nsamples = 3\nvalue = [3, 1, 0]", fillcolor="#eeab7b"] ;
317 -> 318 ;
319 [label="gini = 0.0\nsamples = 1\nvalue = [0, 1, 0]", fillcolor="#39e581"] ;
318 -> 319 ;
320 [label="gini = 0.0\nsamples = 2\nvalue = [3, 0, 0]", fillcolor="#e58139"] ;
318 -> 320 ;
321 [label="gini = 0.0\nsamples = 1\nvalue = [0, 1, 0]", fillcolor="#39e581"] ;
317 -> 321 ;
322 [label="gini = 0.0\nsamples = 1\nvalue = [0, 0, 2]", fillcolor="#8139e5"] ;
306 -> 322 ;
323 [label="gini = 0.0\nsamples = 1\nvalue = [4, 0, 0]", fillcolor="#e58139"] ;
305 -> 323 ;
324 [label="10 <= 0.5\ngini = 0.44\nsamples = 3\nvalue = [2, 0, 4]", fillcolor="#c09cf2"] ;
304 -> 324 ;
325 [label="gini = 0.0\nsamples = 2\nvalue = [0, 0, 4]", fillcolor="#8139e5"] ;
324 -> 325 ;
326 [label="gini = 0.0\nsamples = 1\nvalue = [2, 0, 0]", fillcolor="#e58139"] ;
324 -> 326 ;
327 [label="gini = 0.0\nsamples = 1\nvalue = [1, 0, 0]", fillcolor="#e58139"] ;
303 -> 327 ;
328 [label="HR <= 0.5\ngini = 0.65\nsamples = 98\nvalue = [42, 64, 41]", fillcolor="#d6fae5"] ;
302 -> 328 ;
329 [label="34 <= 0.5\ngini = 0.63\nsamples = 88\nvalue = [32, 63, 35]", fillcolor="#c5f7da"] ;
328 -> 329 ;
330 [label="33_home <= 0.5\ngini = 0.62\nsamples = 84\nvalue = [32, 63, 30]", fillcolor="#bdf6d5"] ;
329 -> 330 ;
331 [label="22 <= 0.5\ngini = 0.61\nsamples = 81\nvalue = [27, 63, 29]", fillcolor="#b4f5cf"] ;
330 -> 331 ;
332 [label="30 <= 0.5\ngini = 0.59\nsamples = 76\nvalue = [25, 62, 23]", fillcolor="#a9f4c8"] ;
331 -> 332 ;
333 [label="Week <= 52.5\ngini = 0.58\nsamples = 75\nvalue = [25, 62, 21]", fillcolor="#a7f3c7"] ;
332 -> 333 ;
334 [label="AC <= 4.5\ngini = 0.57\nsamples = 73\nvalue = [23, 62, 21]", fillcolor="#a2f3c4"] ;
333 -> 334 ;
335 [label="28 <= 0.5\ngini = 0.45\nsamples = 33\nvalue = [8, 39, 8]", fillcolor="#7ceeac"] ;
334 -> 335 ;
336 [label="Day <= 15.0\ngini = 0.42\nsamples = 31\nvalue = [5, 36, 8]", fillcolor="#78eda9"] ;
335 -> 336 ;
337 [label="3 <= 0.5\ngini = 0.45\nsamples = 14\nvalue = [0, 13, 7]", fillcolor="#a4f3c5"] ;
336 -> 337 ;
338 [label="27 <= 0.5\ngini = 0.3\nsamples = 12\nvalue = [0, 13, 3]", fillcolor="#67eb9e"] ;
337 -> 338 ;
339 [label="HC <= 8.5\ngini = 0.23\nsamples = 11\nvalue = [0, 13, 2]", fillcolor="#57e994"] ;
338 -> 339 ;
340 [label="Day <= 11.5\ngini = 0.13\nsamples = 10\nvalue = [0, 13, 1]", fillcolor="#48e78b"] ;
339 -> 340 ;
341 [label="gini = 0.0\nsamples = 8\nvalue = [0, 12, 0]", fillcolor="#39e581"] ;
340 -> 341 ;
342 [label="Month <= 11.5\ngini = 0.5\nsamples = 2\nvalue = [0, 1, 1]", fillcolor="#ffffff"] ;
340 -> 342 ;
343 [label="gini = 0.0\nsamples = 1\nvalue = [0, 0, 1]", fillcolor="#8139e5"] ;
342 -> 343 ;
344 [label="gini = 0.0\nsamples = 1\nvalue = [0, 1, 0]", fillcolor="#39e581"] ;
342 -> 344 ;
345 [label="gini = 0.0\nsamples = 1\nvalue = [0, 0, 1]", fillcolor="#8139e5"] ;
339 -> 345 ;
346 [label="gini = 0.0\nsamples = 1\nvalue = [0, 0, 1]", fillcolor="#8139e5"] ;
338 -> 346 ;
347 [label="gini = 0.0\nsamples = 2\nvalue = [0, 0, 4]", fillcolor="#8139e5"] ;
337 -> 347 ;
348 [label="5 <= 0.5\ngini = 0.34\nsamples = 17\nvalue = [5, 23, 1]", fillcolor="#6aeca0"] ;
336 -> 348 ;
349 [label="19 <= 0.5\ngini = 0.3\nsamples = 16\nvalue = [4, 23, 1]", fillcolor="#62ea9b"] ;
348 -> 349 ;
350 [label="18 <= 0.5\ngini = 0.25\nsamples = 15\nvalue = [4, 23, 0]", fillcolor="#5bea97"] ;
349 -> 350 ;
351 [label="12 <= 0.5\ngini = 0.2\nsamples = 14\nvalue = [3, 23, 0]", fillcolor="#53e891"] ;
350 -> 351 ;
352 [label="16_home <= 0.5\ngini = 0.23\nsamples = 13\nvalue = [3, 20, 0]", fillcolor="#57e994"] ;
351 -> 352 ;
353 [label="32 <= 0.5\ngini = 0.17\nsamples = 12\nvalue = [2, 20, 0]", fillcolor="#4de88e"] ;
352 -> 353 ;
354 [label="AC <= 2.5\ngini = 0.09\nsamples = 11\nvalue = [1, 20, 0]", fillcolor="#43e687"] ;
353 -> 354 ;
355 [label="gini = 0.0\nsamples = 3\nvalue = [0, 6, 0]", fillcolor="#39e581"] ;
354 -> 355 ;
356 [label="AC <= 3.5\ngini = 0.12\nsamples = 8\nvalue = [1, 14, 0]", fillcolor="#47e78a"] ;
354 -> 356 ;
357 [label="AS <= 10.5\ngini = 0.2\nsamples = 5\nvalue = [1, 8, 0]", fillcolor="#52e891"] ;
356 -> 357 ;
358 [label="gini = 0.0\nsamples = 4\nvalue = [0, 8, 0]", fillcolor="#39e581"] ;
357 -> 358 ;
359 [label="gini = 0.0\nsamples = 1\nvalue = [1, 0, 0]", fillcolor="#e58139"] ;
357 -> 359 ;
360 [label="gini = 0.0\nsamples = 3\nvalue = [0, 6, 0]", fillcolor="#39e581"] ;
356 -> 360 ;
361 [label="gini = 0.0\nsamples = 1\nvalue = [1, 0, 0]", fillcolor="#e58139"] ;
353 -> 361 ;
362 [label="gini = 0.0\nsamples = 1\nvalue = [1, 0, 0]", fillcolor="#e58139"] ;
352 -> 362 ;
363 [label="gini = 0.0\nsamples = 1\nvalue = [0, 3, 0]", fillcolor="#39e581"] ;
351 -> 363 ;
364 [label="gini = 0.0\nsamples = 1\nvalue = [1, 0, 0]", fillcolor="#e58139"] ;
350 -> 364 ;
365 [label="gini = 0.0\nsamples = 1\nvalue = [0, 0, 1]", fillcolor="#8139e5"] ;
349 -> 365 ;
366 [label="gini = 0.0\nsamples = 1\nvalue = [1, 0, 0]", fillcolor="#e58139"] ;
348 -> 366 ;
367 [label="HY <= 2.5\ngini = 0.5\nsamples = 2\nvalue = [3, 3, 0]", fillcolor="#ffffff"] ;
335 -> 367 ;
368 [label="gini = 0.0\nsamples = 1\nvalue = [0, 3, 0]", fillcolor="#39e581"] ;
367 -> 368 ;
369 [label="gini = 0.0\nsamples = 1\nvalue = [3, 0, 0]", fillcolor="#e58139"] ;
367 -> 369 ;
370 [label="AF <= 6.5\ngini = 0.65\nsamples = 40\nvalue = [15, 23, 13]", fillcolor="#d3f9e3"] ;
334 -> 370 ;
371 [label="HY <= 2.0\ngini = 0.5\nsamples = 4\nvalue = [2, 0, 2]", fillcolor="#ffffff"] ;
370 -> 371 ;
372 [label="0_home <= 0.5\ngini = 0.44\nsamples = 3\nvalue = [2, 0, 1]", fillcolor="#f2c09c"] ;
371 -> 372 ;
373 [label="gini = 0.0\nsamples = 2\nvalue = [2, 0, 0]", fillcolor="#e58139"] ;
372 -> 373 ;
374 [label="gini = 0.0\nsamples = 1\nvalue = [0, 0, 1]", fillcolor="#8139e5"] ;
372 -> 374 ;
375 [label="gini = 0.0\nsamples = 1\nvalue = [0, 0, 1]", fillcolor="#8139e5"] ;
371 -> 375 ;
376 [label="HC <= 2.5\ngini = 0.63\nsamples = 36\nvalue = [13, 23, 11]", fillcolor="#c5f7da"] ;
370 -> 376 ;
377 [label="HF <= 10.5\ngini = 0.36\nsamples = 11\nvalue = [2, 11, 1]", fillcolor="#6beca0"] ;
376 -> 377 ;
378 [label="Day <= 10.5\ngini = 0.57\nsamples = 6\nvalue = [2, 4, 1]", fillcolor="#b0f5cd"] ;
377 -> 378 ;
379 [label="HS <= 4.0\ngini = 0.44\nsamples = 3\nvalue = [2, 1, 0]", fillcolor="#f2c09c"] ;
378 -> 379 ;
380 [label="gini = 0.0\nsamples = 1\nvalue = [0, 1, 0]", fillcolor="#39e581"] ;
379 -> 380 ;
381 [label="gini = 0.0\nsamples = 2\nvalue = [2, 0, 0]", fillcolor="#e58139"] ;
379 -> 381 ;
382 [label="HF <= 9.5\ngini = 0.38\nsamples = 3\nvalue = [0, 3, 1]", fillcolor="#7beeab"] ;
378 -> 382 ;
383 [label="gini = 0.0\nsamples = 2\nvalue = [0, 3, 0]", fillcolor="#39e581"] ;
382 -> 383 ;
384 [label="gini = 0.0\nsamples = 1\nvalue = [0, 0, 1]", fillcolor="#8139e5"] ;
382 -> 384 ;
385 [label="gini = 0.0\nsamples = 5\nvalue = [0, 7, 0]", fillcolor="#39e581"] ;
377 -> 385 ;
386 [label="HS <= 10.5\ngini = 0.66\nsamples = 25\nvalue = [11, 12, 10]", fillcolor="#f6fef9"] ;
376 -> 386 ;
387 [label="AY <= 1.5\ngini = 0.6\nsamples = 12\nvalue = [6, 2, 7]", fillcolor="#f1e9fc"] ;
386 -> 387 ;
388 [label="11_home <= 0.5\ngini = 0.38\nsamples = 6\nvalue = [2, 0, 6]", fillcolor="#ab7bee"] ;
387 -> 388 ;
389 [label="HST <= 2.5\ngini = 0.24\nsamples = 5\nvalue = [1, 0, 6]", fillcolor="#965ae9"] ;
388 -> 389 ;
390 [label="gini = 0.0\nsamples = 2\nvalue = [0, 0, 3]", fillcolor="#8139e5"] ;
389 -> 390 ;
391 [label="33 <= 0.5\ngini = 0.38\nsamples = 3\nvalue = [1, 0, 3]", fillcolor="#ab7bee"] ;
389 -> 391 ;
392 [label="gini = 0.0\nsamples = 2\nvalue = [0, 0, 3]", fillcolor="#8139e5"] ;
391 -> 392 ;
393 [label="gini = 0.0\nsamples = 1\nvalue = [1, 0, 0]", fillcolor="#e58139"] ;
391 -> 393 ;
394 [label="gini = 0.0\nsamples = 1\nvalue = [1, 0, 0]", fillcolor="#e58139"] ;
388 -> 394 ;
395 [label="HC <= 3.5\ngini = 0.57\nsamples = 6\nvalue = [4, 2, 1]", fillcolor="#f5cdb0"] ;
387 -> 395 ;
396 [label="gini = 0.0\nsamples = 3\nvalue = [4, 0, 0]", fillcolor="#e58139"] ;
395 -> 396 ;
397 [label="14_home <= 0.5\ngini = 0.44\nsamples = 3\nvalue = [0, 2, 1]", fillcolor="#9cf2c0"] ;
395 -> 397 ;
398 [label="gini = 0.0\nsamples = 2\nvalue = [0, 2, 0]", fillcolor="#39e581"] ;
397 -> 398 ;
399 [label="gini = 0.0\nsamples = 1\nvalue = [0, 0, 1]", fillcolor="#8139e5"] ;
397 -> 399 ;
400 [label="33 <= 0.5\ngini = 0.59\nsamples = 13\nvalue = [5, 10, 3]", fillcolor="#b3f5cf"] ;
386 -> 400 ;
401 [label="AS <= 9.5\ngini = 0.55\nsamples = 12\nvalue = [5, 10, 2]", fillcolor="#acf4ca"] ;
400 -> 401 ;
402 [label="gini = 0.0\nsamples = 2\nvalue = [2, 0, 0]", fillcolor="#e58139"] ;
401 -> 402 ;
403 [label="HS <= 12.5\ngini = 0.5\nsamples = 10\nvalue = [3, 10, 2]", fillcolor="#8cf0b6"] ;
401 -> 403 ;
404 [label="21 <= 0.5\ngini = 0.44\nsamples = 4\nvalue = [0, 4, 2]", fillcolor="#9cf2c0"] ;
403 -> 404 ;
405 [label="AF <= 11.5\ngini = 0.44\nsamples = 3\nvalue = [0, 1, 2]", fillcolor="#c09cf2"] ;
404 -> 405 ;
406 [label="gini = 0.0\nsamples = 2\nvalue = [0, 0, 2]", fillcolor="#8139e5"] ;
405 -> 406 ;
407 [label="gini = 0.0\nsamples = 1\nvalue = [0, 1, 0]", fillcolor="#39e581"] ;
405 -> 407 ;
408 [label="gini = 0.0\nsamples = 1\nvalue = [0, 3, 0]", fillcolor="#39e581"] ;
404 -> 408 ;
409 [label="HY <= 2.5\ngini = 0.44\nsamples = 6\nvalue = [3, 6, 0]", fillcolor="#9cf2c0"] ;
403 -> 409 ;
410 [label="gini = 0.0\nsamples = 2\nvalue = [0, 3, 0]", fillcolor="#39e581"] ;
409 -> 410 ;
411 [label="Week <= 38.0\ngini = 0.5\nsamples = 4\nvalue = [3, 3, 0]", fillcolor="#ffffff"] ;
409 -> 411 ;
412 [label="gini = 0.0\nsamples = 2\nvalue = [3, 0, 0]", fillcolor="#e58139"] ;
411 -> 412 ;
413 [label="gini = 0.0\nsamples = 2\nvalue = [0, 3, 0]", fillcolor="#39e581"] ;
411 -> 413 ;
414 [label="gini = 0.0\nsamples = 1\nvalue = [0, 0, 1]", fillcolor="#8139e5"] ;
400 -> 414 ;
415 [label="gini = 0.0\nsamples = 2\nvalue = [2, 0, 0]", fillcolor="#e58139"] ;
333 -> 415 ;
416 [label="gini = 0.0\nsamples = 1\nvalue = [0, 0, 2]", fillcolor="#8139e5"] ;
332 -> 416 ;
417 [label="AY <= 2.0\ngini = 0.49\nsamples = 5\nvalue = [2, 1, 6]", fillcolor="#b78ef0"] ;
331 -> 417 ;
418 [label="gini = 0.0\nsamples = 1\nvalue = [0, 1, 0]", fillcolor="#39e581"] ;
417 -> 418 ;
419 [label="37_home <= 0.5\ngini = 0.38\nsamples = 4\nvalue = [2, 0, 6]", fillcolor="#ab7bee"] ;
417 -> 419 ;
420 [label="26_home <= 0.5\ngini = 0.41\nsamples = 3\nvalue = [2, 0, 5]", fillcolor="#b388ef"] ;
419 -> 420 ;
421 [label="AS <= 8.0\ngini = 0.5\nsamples = 2\nvalue = [2, 0, 2]", fillcolor="#ffffff"] ;
420 -> 421 ;
422 [label="gini = 0.0\nsamples = 1\nvalue = [2, 0, 0]", fillcolor="#e58139"] ;
421 -> 422 ;
423 [label="gini = 0.0\nsamples = 1\nvalue = [0, 0, 2]", fillcolor="#8139e5"] ;
421 -> 423 ;
424 [label="gini = 0.0\nsamples = 1\nvalue = [0, 0, 3]", fillcolor="#8139e5"] ;
420 -> 424 ;
425 [label="gini = 0.0\nsamples = 1\nvalue = [0, 0, 1]", fillcolor="#8139e5"] ;
419 -> 425 ;
426 [label="HS <= 6.5\ngini = 0.28\nsamples = 3\nvalue = [5, 0, 1]", fillcolor="#ea9a61"] ;
330 -> 426 ;
427 [label="gini = 0.0\nsamples = 1\nvalue = [4, 0, 0]", fillcolor="#e58139"] ;
426 -> 427 ;
428 [label="AC <= 3.0\ngini = 0.5\nsamples = 2\nvalue = [1, 0, 1]", fillcolor="#ffffff"] ;
426 -> 428 ;
429 [label="gini = 0.0\nsamples = 1\nvalue = [0, 0, 1]", fillcolor="#8139e5"] ;
428 -> 429 ;
430 [label="gini = 0.0\nsamples = 1\nvalue = [1, 0, 0]", fillcolor="#e58139"] ;
428 -> 430 ;
431 [label="gini = 0.0\nsamples = 4\nvalue = [0, 0, 5]", fillcolor="#8139e5"] ;
329 -> 431 ;
432 [label="HST <= 1.5\ngini = 0.53\nsamples = 10\nvalue = [10, 1, 6]", fillcolor="#f6d1b7"] ;
328 -> 432 ;
433 [label="gini = 0.0\nsamples = 5\nvalue = [7, 0, 0]", fillcolor="#e58139"] ;
432 -> 433 ;
434 [label="HY <= 1.5\ngini = 0.54\nsamples = 5\nvalue = [3, 1, 6]", fillcolor="#c9aaf4"] ;
432 -> 434 ;
435 [label="15 <= 0.5\ngini = 0.57\nsamples = 4\nvalue = [3, 1, 5]", fillcolor="#d5bdf6"] ;
434 -> 435 ;
436 [label="HF <= 10.5\ngini = 0.38\nsamples = 3\nvalue = [3, 1, 0]", fillcolor="#eeab7b"] ;
435 -> 436 ;
437 [label="Month <= 10.0\ngini = 0.44\nsamples = 2\nvalue = [2, 1, 0]", fillcolor="#f2c09c"] ;
436 -> 437 ;
438 [label="gini = 0.0\nsamples = 1\nvalue = [2, 0, 0]", fillcolor="#e58139"] ;
437 -> 438 ;
439 [label="gini = 0.0\nsamples = 1\nvalue = [0, 1, 0]", fillcolor="#39e581"] ;
437 -> 439 ;
440 [label="gini = 0.0\nsamples = 1\nvalue = [1, 0, 0]", fillcolor="#e58139"] ;
436 -> 440 ;
441 [label="gini = 0.0\nsamples = 1\nvalue = [0, 0, 5]", fillcolor="#8139e5"] ;
435 -> 441 ;
442 [label="gini = 0.0\nsamples = 1\nvalue = [0, 0, 1]", fillcolor="#8139e5"] ;
434 -> 442 ;
443 [label="20 <= 0.5\ngini = 0.59\nsamples = 131\nvalue = [35, 52, 110]", fillcolor="#cdb0f5"] ;
301 -> 443 ;
444 [label="AC <= 8.5\ngini = 0.58\nsamples = 129\nvalue = [31, 52, 110]", fillcolor="#cbaef4"] ;
443 -> 444 ;
445 [label="AST <= 2.5\ngini = 0.6\nsamples = 122\nvalue = [31, 52, 97]", fillcolor="#d3b9f6"] ;
444 -> 445 ;
446 [label="30 <= 0.5\ngini = 0.45\nsamples = 45\nvalue = [2, 17, 41]", fillcolor="#b990f0"] ;
445 -> 446 ;
447 [label="HF <= 14.5\ngini = 0.43\nsamples = 44\nvalue = [1, 17, 41]", fillcolor="#b78ef0"] ;
446 -> 447 ;
448 [label="35 <= 0.5\ngini = 0.35\nsamples = 38\nvalue = [1, 10, 39]", fillcolor="#a46fec"] ;
447 -> 448 ;
449 [label="Week <= 42.5\ngini = 0.33\nsamples = 37\nvalue = [1, 9, 39]", fillcolor="#a06aec"] ;
448 -> 449 ;
450 [label="HST <= 6.5\ngini = 0.2\nsamples = 20\nvalue = [1, 2, 24]", fillcolor="#9051e8"] ;
449 -> 450 ;
451 [label="AF <= 11.5\ngini = 0.17\nsamples = 15\nvalue = [0, 2, 20]", fillcolor="#8e4de8"] ;
450 -> 451 ;
452 [label="1 <= 0.5\ngini = 0.1\nsamples = 11\nvalue = [0, 1, 17]", fillcolor="#8845e7"] ;
451 -> 452 ;
453 [label="0_home <= 0.5\ngini = 0.15\nsamples = 9\nvalue = [0, 1, 11]", fillcolor="#8c4be7"] ;
452 -> 453 ;
454 [label="gini = 0.0\nsamples = 7\nvalue = [0, 0, 8]", fillcolor="#8139e5"] ;
453 -> 454 ;
455 [label="5 <= 0.5\ngini = 0.38\nsamples = 2\nvalue = [0, 1, 3]", fillcolor="#ab7bee"] ;
453 -> 455 ;
456 [label="gini = 0.0\nsamples = 1\nvalue = [0, 0, 3]", fillcolor="#8139e5"] ;
455 -> 456 ;
457 [label="gini = 0.0\nsamples = 1\nvalue = [0, 1, 0]", fillcolor="#39e581"] ;
455 -> 457 ;
458 [label="gini = 0.0\nsamples = 2\nvalue = [0, 0, 6]", fillcolor="#8139e5"] ;
452 -> 458 ;
459 [label="HC <= 5.5\ngini = 0.38\nsamples = 4\nvalue = [0, 1, 3]", fillcolor="#ab7bee"] ;
451 -> 459 ;
460 [label="AS <= 7.5\ngini = 0.5\nsamples = 2\nvalue = [0, 1, 1]", fillcolor="#ffffff"] ;
459 -> 460 ;
461 [label="gini = 0.0\nsamples = 1\nvalue = [0, 1, 0]", fillcolor="#39e581"] ;
460 -> 461 ;
462 [label="gini = 0.0\nsamples = 1\nvalue = [0, 0, 1]", fillcolor="#8139e5"] ;
460 -> 462 ;
463 [label="gini = 0.0\nsamples = 2\nvalue = [0, 0, 2]", fillcolor="#8139e5"] ;
459 -> 463 ;
464 [label="Month <= 8.5\ngini = 0.32\nsamples = 5\nvalue = [1, 0, 4]", fillcolor="#a06aec"] ;
450 -> 464 ;
465 [label="gini = 0.0\nsamples = 3\nvalue = [0, 0, 3]", fillcolor="#8139e5"] ;
464 -> 465 ;
466 [label="HC <= 2.5\ngini = 0.5\nsamples = 2\nvalue = [1, 0, 1]", fillcolor="#ffffff"] ;
464 -> 466 ;
467 [label="gini = 0.0\nsamples = 1\nvalue = [0, 0, 1]", fillcolor="#8139e5"] ;
466 -> 467 ;
468 [label="gini = 0.0\nsamples = 1\nvalue = [1, 0, 0]", fillcolor="#e58139"] ;
466 -> 468 ;
469 [label="AF <= 6.5\ngini = 0.43\nsamples = 17\nvalue = [0, 7, 15]", fillcolor="#bc95f1"] ;
449 -> 469 ;
470 [label="gini = 0.0\nsamples = 2\nvalue = [0, 3, 0]", fillcolor="#39e581"] ;
469 -> 470 ;
471 [label="23_home <= 0.5\ngini = 0.33\nsamples = 15\nvalue = [0, 4, 15]", fillcolor="#a36eec"] ;
469 -> 471 ;
472 [label="29 <= 0.5\ngini = 0.35\nsamples = 14\nvalue = [0, 4, 14]", fillcolor="#a572ec"] ;
471 -> 472 ;
473 [label="Week <= 48.5\ngini = 0.29\nsamples = 13\nvalue = [0, 3, 14]", fillcolor="#9c63eb"] ;
472 -> 473 ;
474 [label="HY <= 2.0\ngini = 0.44\nsamples = 7\nvalue = [0, 3, 6]", fillcolor="#c09cf2"] ;
473 -> 474 ;
475 [label="HF <= 8.5\ngini = 0.38\nsamples = 6\nvalue = [0, 2, 6]", fillcolor="#ab7bee"] ;
474 -> 475 ;
476 [label="gini = 0.0\nsamples = 1\nvalue = [0, 0, 3]", fillcolor="#8139e5"] ;
475 -> 476 ;
477 [label="13_home <= 0.5\ngini = 0.48\nsamples = 5\nvalue = [0, 2, 3]", fillcolor="#d5bdf6"] ;
475 -> 477 ;
478 [label="HS <= 10.0\ngini = 0.38\nsamples = 4\nvalue = [0, 1, 3]", fillcolor="#ab7bee"] ;
477 -> 478 ;
479 [label="gini = 0.0\nsamples = 1\nvalue = [0, 1, 0]", fillcolor="#39e581"] ;
478 -> 479 ;
480 [label="gini = 0.0\nsamples = 3\nvalue = [0, 0, 3]", fillcolor="#8139e5"] ;
478 -> 480 ;
481 [label="gini = 0.0\nsamples = 1\nvalue = [0, 1, 0]", fillcolor="#39e581"] ;
477 -> 481 ;
482 [label="gini = 0.0\nsamples = 1\nvalue = [0, 1, 0]", fillcolor="#39e581"] ;
474 -> 482 ;
483 [label="gini = 0.0\nsamples = 6\nvalue = [0, 0, 8]", fillcolor="#8139e5"] ;
473 -> 483 ;
484 [label="gini = 0.0\nsamples = 1\nvalue = [0, 1, 0]", fillcolor="#39e581"] ;
472 -> 484 ;
485 [label="gini = 0.0\nsamples = 1\nvalue = [0, 0, 1]", fillcolor="#8139e5"] ;
471 -> 485 ;
486 [label="gini = 0.0\nsamples = 1\nvalue = [0, 1, 0]", fillcolor="#39e581"] ;
448 -> 486 ;
487 [label="AC <= 2.0\ngini = 0.35\nsamples = 6\nvalue = [0, 7, 2]", fillcolor="#72eca5"] ;
447 -> 487 ;
488 [label="gini = 0.0\nsamples = 1\nvalue = [0, 0, 1]", fillcolor="#8139e5"] ;
487 -> 488 ;
489 [label="AF <= 10.5\ngini = 0.22\nsamples = 5\nvalue = [0, 7, 1]", fillcolor="#55e993"] ;
487 -> 489 ;
490 [label="gini = 0.0\nsamples = 3\nvalue = [0, 5, 0]", fillcolor="#39e581"] ;
489 -> 490 ;
491 [label="17 <= 0.5\ngini = 0.44\nsamples = 2\nvalue = [0, 2, 1]", fillcolor="#9cf2c0"] ;
489 -> 491 ;
492 [label="gini = 0.0\nsamples = 1\nvalue = [0, 0, 1]", fillcolor="#8139e5"] ;
491 -> 492 ;
493 [label="gini = 0.0\nsamples = 1\nvalue = [0, 2, 0]", fillcolor="#39e581"] ;
491 -> 493 ;
494 [label="gini = 0.0\nsamples = 1\nvalue = [1, 0, 0]", fillcolor="#e58139"] ;
446 -> 494 ;
495 [label="12 <= 0.5\ngini = 0.64\nsamples = 77\nvalue = [29, 35, 56]", fillcolor="#e0cef9"] ;
445 -> 495 ;
496 [label="12 <= 0.5\ngini = 0.63\nsamples = 76\nvalue = [25, 35, 56]", fillcolor="#deccf8"] ;
495 -> 496 ;
497 [label="HC <= 5.5\ngini = 0.64\nsamples = 72\nvalue = [25, 35, 48]", fillcolor="#e9dcfa"] ;
496 -> 497 ;
498 [label="35 <= 0.5\ngini = 0.61\nsamples = 42\nvalue = [17, 12, 31]", fillcolor="#d6bff7"] ;
497 -> 498 ;
499 [label="AC <= 7.5\ngini = 0.6\nsamples = 38\nvalue = [17, 9, 29]", fillcolor="#d7c0f7"] ;
498 -> 499 ;
500 [label="AF <= 12.5\ngini = 0.57\nsamples = 35\nvalue = [11, 9, 28]", fillcolor="#c5a4f3"] ;
499 -> 500 ;
501 [label="AS <= 15.5\ngini = 0.51\nsamples = 30\nvalue = [8, 6, 27]", fillcolor="#b68df0"] ;
500 -> 501 ;
502 [label="Day <= 10.0\ngini = 0.45\nsamples = 27\nvalue = [7, 4, 27]", fillcolor="#ae7fee"] ;
501 -> 502 ;
503 [label="22_home <= 0.5\ngini = 0.23\nsamples = 10\nvalue = [0, 2, 13]", fillcolor="#9457e9"] ;
502 -> 503 ;
504 [label="gini = 0.0\nsamples = 9\nvalue = [0, 0, 13]", fillcolor="#8139e5"] ;
503 -> 504 ;
505 [label="gini = 0.0\nsamples = 1\nvalue = [0, 2, 0]", fillcolor="#39e581"] ;
503 -> 505 ;
506 [label="Month <= 7.5\ngini = 0.53\nsamples = 17\nvalue = [7, 2, 14]", fillcolor="#c8a8f4"] ;
502 -> 506 ;
507 [label="gini = 0.0\nsamples = 1\nvalue = [3, 0, 0]", fillcolor="#e58139"] ;
506 -> 507 ;
508 [label="HY <= 0.5\ngini = 0.46\nsamples = 16\nvalue = [4, 2, 14]", fillcolor="#b083ef"] ;
506 -> 508 ;
509 [label="11_home <= 0.5\ngini = 0.64\nsamples = 5\nvalue = [2, 2, 1]", fillcolor="#ffffff"] ;
508 -> 509 ;
510 [label="HF <= 10.0\ngini = 0.62\nsamples = 4\nvalue = [1, 2, 1]", fillcolor="#bdf6d5"] ;
509 -> 510 ;
511 [label="gini = 0.0\nsamples = 2\nvalue = [0, 2, 0]", fillcolor="#39e581"] ;
510 -> 511 ;
512 [label="Month <= 11.0\ngini = 0.5\nsamples = 2\nvalue = [1, 0, 1]", fillcolor="#ffffff"] ;
510 -> 512 ;
513 [label="gini = 0.0\nsamples = 1\nvalue = [1, 0, 0]", fillcolor="#e58139"] ;
512 -> 513 ;
514 [label="gini = 0.0\nsamples = 1\nvalue = [0, 0, 1]", fillcolor="#8139e5"] ;
512 -> 514 ;
515 [label="gini = 0.0\nsamples = 1\nvalue = [1, 0, 0]", fillcolor="#e58139"] ;
509 -> 515 ;
516 [label="19 <= 0.5\ngini = 0.23\nsamples = 11\nvalue = [2, 0, 13]", fillcolor="#9457e9"] ;
508 -> 516 ;
517 [label="25 <= 0.5\ngini = 0.17\nsamples = 9\nvalue = [1, 0, 10]", fillcolor="#8e4de8"] ;
516 -> 517 ;
518 [label="gini = 0.0\nsamples = 8\nvalue = [0, 0, 10]", fillcolor="#8139e5"] ;
517 -> 518 ;
519 [label="gini = 0.0\nsamples = 1\nvalue = [1, 0, 0]", fillcolor="#e58139"] ;
517 -> 519 ;
520 [label="0 <= 0.5\ngini = 0.38\nsamples = 2\nvalue = [1, 0, 3]", fillcolor="#ab7bee"] ;
516 -> 520 ;
521 [label="gini = 0.0\nsamples = 1\nvalue = [0, 0, 3]", fillcolor="#8139e5"] ;
520 -> 521 ;
522 [label="gini = 0.0\nsamples = 1\nvalue = [1, 0, 0]", fillcolor="#e58139"] ;
520 -> 522 ;
523 [label="Day <= 23.5\ngini = 0.44\nsamples = 3\nvalue = [1, 2, 0]", fillcolor="#9cf2c0"] ;
501 -> 523 ;
524 [label="gini = 0.0\nsamples = 2\nvalue = [0, 2, 0]", fillcolor="#39e581"] ;
523 -> 524 ;
525 [label="gini = 0.0\nsamples = 1\nvalue = [1, 0, 0]", fillcolor="#e58139"] ;
523 -> 525 ;
526 [label="22_home <= 0.5\ngini = 0.61\nsamples = 5\nvalue = [3, 3, 1]", fillcolor="#ffffff"] ;
500 -> 526 ;
527 [label="Day <= 24.0\ngini = 0.5\nsamples = 4\nvalue = [3, 3, 0]", fillcolor="#ffffff"] ;
526 -> 527 ;
528 [label="Month <= 8.5\ngini = 0.38\nsamples = 3\nvalue = [1, 3, 0]", fillcolor="#7beeab"] ;
527 -> 528 ;
529 [label="gini = 0.0\nsamples = 1\nvalue = [0, 2, 0]", fillcolor="#39e581"] ;
528 -> 529 ;
530 [label="28 <= 0.5\ngini = 0.5\nsamples = 2\nvalue = [1, 1, 0]", fillcolor="#ffffff"] ;
528 -> 530 ;
531 [label="gini = 0.0\nsamples = 1\nvalue = [1, 0, 0]", fillcolor="#e58139"] ;
530 -> 531 ;
532 [label="gini = 0.0\nsamples = 1\nvalue = [0, 1, 0]", fillcolor="#39e581"] ;
530 -> 532 ;
533 [label="gini = 0.0\nsamples = 1\nvalue = [2, 0, 0]", fillcolor="#e58139"] ;
527 -> 533 ;
534 [label="gini = 0.0\nsamples = 1\nvalue = [0, 0, 1]", fillcolor="#8139e5"] ;
526 -> 534 ;
535 [label="HST <= 6.5\ngini = 0.24\nsamples = 3\nvalue = [6, 0, 1]", fillcolor="#e9965a"] ;
499 -> 535 ;
536 [label="gini = 0.0\nsamples = 2\nvalue = [6, 0, 0]", fillcolor="#e58139"] ;
535 -> 536 ;
537 [label="gini = 0.0\nsamples = 1\nvalue = [0, 0, 1]", fillcolor="#8139e5"] ;
535 -> 537 ;
538 [label="HS <= 9.5\ngini = 0.48\nsamples = 4\nvalue = [0, 3, 2]", fillcolor="#bdf6d5"] ;
498 -> 538 ;
539 [label="gini = 0.0\nsamples = 1\nvalue = [0, 0, 1]", fillcolor="#8139e5"] ;
538 -> 539 ;
540 [label="HS <= 12.5\ngini = 0.38\nsamples = 3\nvalue = [0, 3, 1]", fillcolor="#7beeab"] ;
538 -> 540 ;
541 [label="gini = 0.0\nsamples = 2\nvalue = [0, 3, 0]", fillcolor="#39e581"] ;
540 -> 541 ;
542 [label="gini = 0.0\nsamples = 1\nvalue = [0, 0, 1]", fillcolor="#8139e5"] ;
540 -> 542 ;
543 [label="0 <= 0.5\ngini = 0.62\nsamples = 30\nvalue = [8, 23, 17]", fillcolor="#d9fae7"] ;
497 -> 543 ;
544 [label="23 <= 0.5\ngini = 0.61\nsamples = 28\nvalue = [8, 23, 15]", fillcolor="#ccf8de"] ;
543 -> 544 ;
545 [label="29 <= 0.5\ngini = 0.61\nsamples = 27\nvalue = [8, 23, 13]", fillcolor="#bff7d6"] ;
544 -> 545 ;
546 [label="AR <= 0.5\ngini = 0.58\nsamples = 23\nvalue = [7, 23, 10]", fillcolor="#a9f4c8"] ;
545 -> 546 ;
547 [label="16 <= 0.5\ngini = 0.63\nsamples = 21\nvalue = [7, 16, 10]", fillcolor="#cbf8de"] ;
546 -> 547 ;
548 [label="AC <= 2.5\ngini = 0.65\nsamples = 20\nvalue = [7, 13, 10]", fillcolor="#e1fbec"] ;
547 -> 548 ;
549 [label="gini = 0.0\nsamples = 4\nvalue = [5, 0, 0]", fillcolor="#e58139"] ;
548 -> 549 ;
550 [label="Week <= 43.5\ngini = 0.56\nsamples = 16\nvalue = [2, 13, 10]", fillcolor="#d7fae6"] ;
548 -> 550 ;
551 [label="Day <= 24.5\ngini = 0.46\nsamples = 12\nvalue = [1, 13, 5]", fillcolor="#8ef0b7"] ;
550 -> 551 ;
552 [label="5 <= 0.5\ngini = 0.58\nsamples = 8\nvalue = [1, 5, 5]", fillcolor="#ffffff"] ;
551 -> 552 ;
553 [label="AF <= 11.5\ngini = 0.57\nsamples = 7\nvalue = [1, 3, 5]", fillcolor="#d5bdf6"] ;
552 -> 553 ;
554 [label="Day <= 20.0\ngini = 0.61\nsamples = 5\nvalue = [1, 3, 2]", fillcolor="#cef8e0"] ;
553 -> 554 ;
555 [label="32_home <= 0.5\ngini = 0.38\nsamples = 3\nvalue = [0, 3, 1]", fillcolor="#7beeab"] ;
554 -> 555 ;
556 [label="Month <= 9.0\ngini = 0.44\nsamples = 2\nvalue = [0, 2, 1]", fillcolor="#9cf2c0"] ;
555 -> 556 ;
557 [label="gini = 0.0\nsamples = 1\nvalue = [0, 2, 0]", fillcolor="#39e581"] ;
556 -> 557 ;
558 [label="gini = 0.0\nsamples = 1\nvalue = [0, 0, 1]", fillcolor="#8139e5"] ;
556 -> 558 ;
559 [label="gini = 0.0\nsamples = 1\nvalue = [0, 1, 0]", fillcolor="#39e581"] ;
555 -> 559 ;
560 [label="AC <= 4.5\ngini = 0.5\nsamples = 2\nvalue = [1, 0, 1]", fillcolor="#ffffff"] ;
554 -> 560 ;
561 [label="gini = 0.0\nsamples = 1\nvalue = [1, 0, 0]", fillcolor="#e58139"] ;
560 -> 561 ;
562 [label="gini = 0.0\nsamples = 1\nvalue = [0, 0, 1]", fillcolor="#8139e5"] ;
560 -> 562 ;
563 [label="gini = 0.0\nsamples = 2\nvalue = [0, 0, 3]", fillcolor="#8139e5"] ;
553 -> 563 ;
564 [label="gini = 0.0\nsamples = 1\nvalue = [0, 2, 0]", fillcolor="#39e581"] ;
552 -> 564 ;
565 [label="gini = 0.0\nsamples = 4\nvalue = [0, 8, 0]", fillcolor="#39e581"] ;
551 -> 565 ;
566 [label="20 <= 0.5\ngini = 0.28\nsamples = 4\nvalue = [1, 0, 5]", fillcolor="#9a61ea"] ;
550 -> 566 ;
567 [label="gini = 0.0\nsamples = 3\nvalue = [0, 0, 5]", fillcolor="#8139e5"] ;
566 -> 567 ;
568 [label="gini = 0.0\nsamples = 1\nvalue = [1, 0, 0]", fillcolor="#e58139"] ;
566 -> 568 ;
569 [label="gini = 0.0\nsamples = 1\nvalue = [0, 3, 0]", fillcolor="#39e581"] ;
547 -> 569 ;
570 [label="gini = 0.0\nsamples = 2\nvalue = [0, 7, 0]", fillcolor="#39e581"] ;
546 -> 570 ;
571 [label="37_home <= 0.5\ngini = 0.38\nsamples = 4\nvalue = [1, 0, 3]", fillcolor="#ab7bee"] ;
545 -> 571 ;
572 [label="gini = 0.0\nsamples = 3\nvalue = [0, 0, 3]", fillcolor="#8139e5"] ;
571 -> 572 ;
573 [label="gini = 0.0\nsamples = 1\nvalue = [1, 0, 0]", fillcolor="#e58139"] ;
571 -> 573 ;
574 [label="gini = 0.0\nsamples = 1\nvalue = [0, 0, 2]", fillcolor="#8139e5"] ;
544 -> 574 ;
575 [label="gini = 0.0\nsamples = 2\nvalue = [0, 0, 2]", fillcolor="#8139e5"] ;
543 -> 575 ;
576 [label="gini = 0.0\nsamples = 4\nvalue = [0, 0, 8]", fillcolor="#8139e5"] ;
496 -> 576 ;
577 [label="gini = 0.0\nsamples = 1\nvalue = [4, 0, 0]", fillcolor="#e58139"] ;
495 -> 577 ;
578 [label="gini = 0.0\nsamples = 7\nvalue = [0, 0, 13]", fillcolor="#8139e5"] ;
444 -> 578 ;
579 [label="gini = 0.0\nsamples = 2\nvalue = [4, 0, 0]", fillcolor="#e58139"] ;
443 -> 579 ;
580 [label="19_home <= 0.5\ngini = 0.58\nsamples = 87\nvalue = [14, 59, 70]", fillcolor="#eee5fc"] ;
300 -> 580 ;
581 [label="Month <= 10.5\ngini = 0.59\nsamples = 85\nvalue = [14, 59, 65]", fillcolor="#f5f0fd"] ;
580 -> 581 ;
582 [label="22 <= 0.5\ngini = 0.57\nsamples = 48\nvalue = [8, 42, 29]", fillcolor="#ccf8de"] ;
581 -> 582 ;
583 [label="29 <= 0.5\ngini = 0.55\nsamples = 47\nvalue = [6, 42, 29]", fillcolor="#c9f8dd"] ;
582 -> 583 ;
584 [label="AF <= 15.5\ngini = 0.57\nsamples = 43\nvalue = [6, 35, 29]", fillcolor="#e2fbed"] ;
583 -> 584 ;
585 [label="37 <= 0.5\ngini = 0.42\nsamples = 19\nvalue = [1, 21, 7]", fillcolor="#81eeaf"] ;
584 -> 585 ;
586 [label="0_home <= 0.5\ngini = 0.44\nsamples = 18\nvalue = [1, 19, 7]", fillcolor="#88efb3"] ;
585 -> 586 ;
587 [label="HY <= 0.5\ngini = 0.41\nsamples = 17\nvalue = [1, 19, 6]", fillcolor="#7eeead"] ;
586 -> 587 ;
588 [label="gini = 0.0\nsamples = 4\nvalue = [0, 4, 0]", fillcolor="#39e581"] ;
587 -> 588 ;
589 [label="AY <= 0.5\ngini = 0.46\nsamples = 13\nvalue = [1, 15, 6]", fillcolor="#90f0b8"] ;
587 -> 589 ;
590 [label="gini = 0.0\nsamples = 2\nvalue = [0, 0, 3]", fillcolor="#8139e5"] ;
589 -> 590 ;
591 [label="AY <= 3.5\ngini = 0.35\nsamples = 11\nvalue = [1, 15, 3]", fillcolor="#6aeca0"] ;
589 -> 591 ;
592 [label="36 <= 0.5\ngini = 0.21\nsamples = 10\nvalue = [1, 15, 1]", fillcolor="#52e891"] ;
591 -> 592 ;
593 [label="Month <= 6.5\ngini = 0.26\nsamples = 9\nvalue = [1, 12, 1]", fillcolor="#57e994"] ;
592 -> 593 ;
594 [label="gini = 0.0\nsamples = 1\nvalue = [1, 0, 0]", fillcolor="#e58139"] ;
593 -> 594 ;
595 [label="HST <= 6.0\ngini = 0.14\nsamples = 8\nvalue = [0, 12, 1]", fillcolor="#49e78c"] ;
593 -> 595 ;
596 [label="gini = 0.0\nsamples = 7\nvalue = [0, 12, 0]", fillcolor="#39e581"] ;
595 -> 596 ;
597 [label="gini = 0.0\nsamples = 1\nvalue = [0, 0, 1]", fillcolor="#8139e5"] ;
595 -> 597 ;
598 [label="gini = 0.0\nsamples = 1\nvalue = [0, 3, 0]", fillcolor="#39e581"] ;
592 -> 598 ;
599 [label="gini = 0.0\nsamples = 1\nvalue = [0, 0, 2]", fillcolor="#8139e5"] ;
591 -> 599 ;
600 [label="gini = 0.0\nsamples = 1\nvalue = [0, 0, 1]", fillcolor="#8139e5"] ;
586 -> 600 ;
601 [label="gini = 0.0\nsamples = 1\nvalue = [0, 2, 0]", fillcolor="#39e581"] ;
585 -> 601 ;
602 [label="27_home <= 0.5\ngini = 0.58\nsamples = 24\nvalue = [5, 14, 22]", fillcolor="#dac4f7"] ;
584 -> 602 ;
603 [label="AF <= 18.5\ngini = 0.55\nsamples = 23\nvalue = [3, 14, 22]", fillcolor="#d7c0f7"] ;
602 -> 603 ;
604 [label="AY <= 3.5\ngini = 0.58\nsamples = 18\nvalue = [3, 13, 14]", fillcolor="#f8f3fd"] ;
603 -> 604 ;
605 [label="AS <= 9.5\ngini = 0.53\nsamples = 15\nvalue = [1, 11, 14]", fillcolor="#e6d7fa"] ;
604 -> 605 ;
606 [label="17 <= 0.5\ngini = 0.4\nsamples = 7\nvalue = [1, 2, 9]", fillcolor="#a774ed"] ;
605 -> 606 ;
607 [label="27 <= 0.5\ngini = 0.31\nsamples = 6\nvalue = [1, 1, 9]", fillcolor="#9a61ea"] ;
606 -> 607 ;
608 [label="AS <= 7.0\ngini = 0.41\nsamples = 5\nvalue = [1, 1, 6]", fillcolor="#a572ec"] ;
607 -> 608 ;
609 [label="gini = 0.0\nsamples = 1\nvalue = [0, 1, 0]", fillcolor="#39e581"] ;
608 -> 609 ;
610 [label="AS <= 8.5\ngini = 0.24\nsamples = 4\nvalue = [1, 0, 6]", fillcolor="#965ae9"] ;
608 -> 610 ;
611 [label="gini = 0.0\nsamples = 1\nvalue = [0, 0, 3]", fillcolor="#8139e5"] ;
610 -> 611 ;
612 [label="37 <= 0.5\ngini = 0.38\nsamples = 3\nvalue = [1, 0, 3]", fillcolor="#ab7bee"] ;
610 -> 612 ;
613 [label="gini = 0.0\nsamples = 2\nvalue = [0, 0, 3]", fillcolor="#8139e5"] ;
612 -> 613 ;
614 [label="gini = 0.0\nsamples = 1\nvalue = [1, 0, 0]", fillcolor="#e58139"] ;
612 -> 614 ;
615 [label="gini = 0.0\nsamples = 1\nvalue = [0, 0, 3]", fillcolor="#8139e5"] ;
607 -> 615 ;
616 [label="gini = 0.0\nsamples = 1\nvalue = [0, 1, 0]", fillcolor="#39e581"] ;
606 -> 616 ;
617 [label="23 <= 0.5\ngini = 0.46\nsamples = 8\nvalue = [0, 9, 5]", fillcolor="#a7f3c7"] ;
605 -> 617 ;
618 [label="Week <= 36.5\ngini = 0.47\nsamples = 7\nvalue = [0, 8, 5]", fillcolor="#b5f5d0"] ;
617 -> 618 ;
619 [label="gini = 0.0\nsamples = 3\nvalue = [0, 5, 0]", fillcolor="#39e581"] ;
618 -> 619 ;
620 [label="HS <= 10.0\ngini = 0.47\nsamples = 4\nvalue = [0, 3, 5]", fillcolor="#cdb0f5"] ;
618 -> 620 ;
621 [label="gini = 0.0\nsamples = 1\nvalue = [0, 0, 4]", fillcolor="#8139e5"] ;
620 -> 621 ;
622 [label="20 <= 0.5\ngini = 0.38\nsamples = 3\nvalue = [0, 3, 1]", fillcolor="#7beeab"] ;
620 -> 622 ;
623 [label="gini = 0.0\nsamples = 2\nvalue = [0, 3, 0]", fillcolor="#39e581"] ;
622 -> 623 ;
624 [label="gini = 0.0\nsamples = 1\nvalue = [0, 0, 1]", fillcolor="#8139e5"] ;
622 -> 624 ;
625 [label="gini = 0.0\nsamples = 1\nvalue = [0, 1, 0]", fillcolor="#39e581"] ;
617 -> 625 ;
626 [label="HST <= 5.0\ngini = 0.5\nsamples = 3\nvalue = [2, 2, 0]", fillcolor="#ffffff"] ;
604 -> 626 ;
627 [label="gini = 0.0\nsamples = 2\nvalue = [2, 0, 0]", fillcolor="#e58139"] ;
626 -> 627 ;
628 [label="gini = 0.0\nsamples = 1\nvalue = [0, 2, 0]", fillcolor="#39e581"] ;
626 -> 628 ;
629 [label="AY <= 1.5\ngini = 0.2\nsamples = 5\nvalue = [0, 1, 8]", fillcolor="#9152e8"] ;
603 -> 629 ;
630 [label="HF <= 15.0\ngini = 0.38\nsamples = 2\nvalue = [0, 1, 3]", fillcolor="#ab7bee"] ;
629 -> 630 ;
631 [label="gini = 0.0\nsamples = 1\nvalue = [0, 0, 3]", fillcolor="#8139e5"] ;
630 -> 631 ;
632 [label="gini = 0.0\nsamples = 1\nvalue = [0, 1, 0]", fillcolor="#39e581"] ;
630 -> 632 ;
633 [label="gini = 0.0\nsamples = 3\nvalue = [0, 0, 5]", fillcolor="#8139e5"] ;
629 -> 633 ;
634 [label="gini = 0.0\nsamples = 1\nvalue = [2, 0, 0]", fillcolor="#e58139"] ;
602 -> 634 ;
635 [label="gini = 0.0\nsamples = 4\nvalue = [0, 7, 0]", fillcolor="#39e581"] ;
583 -> 635 ;
636 [label="gini = 0.0\nsamples = 1\nvalue = [2, 0, 0]", fillcolor="#e58139"] ;
582 -> 636 ;
637 [label="AST <= 2.5\ngini = 0.53\nsamples = 37\nvalue = [6, 17, 36]", fillcolor="#c6a5f3"] ;
581 -> 637 ;
638 [label="0 <= 0.5\ngini = 0.26\nsamples = 10\nvalue = [2, 1, 17]", fillcolor="#965ae9"] ;
637 -> 638 ;
639 [label="HST <= 1.5\ngini = 0.1\nsamples = 9\nvalue = [0, 1, 17]", fillcolor="#8845e7"] ;
638 -> 639 ;
640 [label="gini = 0.0\nsamples = 1\nvalue = [0, 1, 0]", fillcolor="#39e581"] ;
639 -> 640 ;
641 [label="gini = 0.0\nsamples = 8\nvalue = [0, 0, 17]", fillcolor="#8139e5"] ;
639 -> 641 ;
642 [label="gini = 0.0\nsamples = 1\nvalue = [2, 0, 0]", fillcolor="#e58139"] ;
638 -> 642 ;
643 [label="AC <= 4.5\ngini = 0.58\nsamples = 27\nvalue = [4, 16, 19]", fillcolor="#efe5fc"] ;
637 -> 643 ;
644 [label="Month <= 11.5\ngini = 0.57\nsamples = 15\nvalue = [3, 13, 7]", fillcolor="#b5f5d0"] ;
643 -> 644 ;
645 [label="23_home <= 0.5\ngini = 0.63\nsamples = 7\nvalue = [2, 4, 5]", fillcolor="#ede3fb"] ;
644 -> 645 ;
646 [label="AF <= 17.0\ngini = 0.64\nsamples = 6\nvalue = [2, 4, 4]", fillcolor="#ffffff"] ;
645 -> 646 ;
647 [label="gini = 0.0\nsamples = 3\nvalue = [0, 0, 4]", fillcolor="#8139e5"] ;
646 -> 647 ;
648 [label="21 <= 0.5\ngini = 0.44\nsamples = 3\nvalue = [2, 4, 0]", fillcolor="#9cf2c0"] ;
646 -> 648 ;
649 [label="Week <= 45.5\ngini = 0.48\nsamples = 2\nvalue = [2, 3, 0]", fillcolor="#bdf6d5"] ;
648 -> 649 ;
650 [label="gini = 0.0\nsamples = 1\nvalue = [0, 3, 0]", fillcolor="#39e581"] ;
649 -> 650 ;
651 [label="gini = 0.0\nsamples = 1\nvalue = [2, 0, 0]", fillcolor="#e58139"] ;
649 -> 651 ;
652 [label="gini = 0.0\nsamples = 1\nvalue = [0, 1, 0]", fillcolor="#39e581"] ;
648 -> 652 ;
653 [label="gini = 0.0\nsamples = 1\nvalue = [0, 0, 1]", fillcolor="#8139e5"] ;
645 -> 653 ;
654 [label="HR <= 0.5\ngini = 0.4\nsamples = 8\nvalue = [1, 9, 2]", fillcolor="#74eda7"] ;
644 -> 654 ;
655 [label="HS <= 12.0\ngini = 0.3\nsamples = 7\nvalue = [0, 9, 2]", fillcolor="#65eb9d"] ;
654 -> 655 ;
656 [label="gini = 0.0\nsamples = 4\nvalue = [0, 6, 0]", fillcolor="#39e581"] ;
655 -> 656 ;
657 [label="29_home <= 0.5\ngini = 0.48\nsamples = 3\nvalue = [0, 3, 2]", fillcolor="#bdf6d5"] ;
655 -> 657 ;
658 [label="gini = 0.0\nsamples = 2\nvalue = [0, 3, 0]", fillcolor="#39e581"] ;
657 -> 658 ;
659 [label="gini = 0.0\nsamples = 1\nvalue = [0, 0, 2]", fillcolor="#8139e5"] ;
657 -> 659 ;
660 [label="gini = 0.0\nsamples = 1\nvalue = [1, 0, 0]", fillcolor="#e58139"] ;
654 -> 660 ;
661 [label="HC <= 3.5\ngini = 0.4\nsamples = 12\nvalue = [1, 3, 12]", fillcolor="#a876ed"] ;
643 -> 661 ;
662 [label="37 <= 0.5\ngini = 0.67\nsamples = 3\nvalue = [1, 1, 1]", fillcolor="#ffffff"] ;
661 -> 662 ;
663 [label="gini = 0.0\nsamples = 1\nvalue = [0, 1, 0]", fillcolor="#39e581"] ;
662 -> 663 ;
664 [label="HC <= 2.0\ngini = 0.5\nsamples = 2\nvalue = [1, 0, 1]", fillcolor="#ffffff"] ;
662 -> 664 ;
665 [label="gini = 0.0\nsamples = 1\nvalue = [0, 0, 1]", fillcolor="#8139e5"] ;
664 -> 665 ;
666 [label="gini = 0.0\nsamples = 1\nvalue = [1, 0, 0]", fillcolor="#e58139"] ;
664 -> 666 ;
667 [label="30_home <= 0.5\ngini = 0.26\nsamples = 9\nvalue = [0, 2, 11]", fillcolor="#985dea"] ;
661 -> 667 ;
668 [label="AC <= 7.5\ngini = 0.15\nsamples = 8\nvalue = [0, 1, 11]", fillcolor="#8c4be7"] ;
667 -> 668 ;
669 [label="gini = 0.0\nsamples = 5\nvalue = [0, 0, 8]", fillcolor="#8139e5"] ;
668 -> 669 ;
670 [label="4_home <= 0.5\ngini = 0.38\nsamples = 3\nvalue = [0, 1, 3]", fillcolor="#ab7bee"] ;
668 -> 670 ;
671 [label="gini = 0.0\nsamples = 2\nvalue = [0, 0, 3]", fillcolor="#8139e5"] ;
670 -> 671 ;
672 [label="gini = 0.0\nsamples = 1\nvalue = [0, 1, 0]", fillcolor="#39e581"] ;
670 -> 672 ;
673 [label="gini = 0.0\nsamples = 1\nvalue = [0, 1, 0]", fillcolor="#39e581"] ;
667 -> 673 ;
674 [label="gini = 0.0\nsamples = 2\nvalue = [0, 0, 5]", fillcolor="#8139e5"] ;
580 -> 674 ;
675 [label="AY <= 0.5\ngini = 0.62\nsamples = 693\nvalue = [544, 231, 301]", fillcolor="#f7d7c1"] ;
1 -> 675 ;
676 [label="3_home <= 0.5\ngini = 0.56\nsamples = 135\nvalue = [132, 42, 46]", fillcolor="#f2c19d"] ;
675 -> 676 ;
677 [label="AS <= 12.5\ngini = 0.55\nsamples = 133\nvalue = [132, 42, 42]", fillcolor="#f2be99"] ;
676 -> 677 ;
678 [label="4_home <= 0.5\ngini = 0.65\nsamples = 46\nvalue = [34, 20, 23]", fillcolor="#fae5d7"] ;
677 -> 678 ;
679 [label="21 <= 0.5\ngini = 0.64\nsamples = 43\nvalue = [32, 16, 23]", fillcolor="#fae7da"] ;
678 -> 679 ;
680 [label="HR <= 0.5\ngini = 0.65\nsamples = 40\nvalue = [27, 16, 23]", fillcolor="#fdf3ed"] ;
679 -> 680 ;
681 [label="HC <= 7.5\ngini = 0.66\nsamples = 39\nvalue = [24, 16, 23]", fillcolor="#fefcfa"] ;
680 -> 681 ;
682 [label="3 <= 0.5\ngini = 0.66\nsamples = 35\nvalue = [17, 15, 23]", fillcolor="#ebe0fb"] ;
681 -> 682 ;
683 [label="34 <= 0.5\ngini = 0.66\nsamples = 33\nvalue = [17, 15, 20]", fillcolor="#f4eefd"] ;
682 -> 683 ;
684 [label="AF <= 12.0\ngini = 0.65\nsamples = 32\nvalue = [17, 11, 20]", fillcolor="#f3ecfc"] ;
683 -> 684 ;
685 [label="5 <= 0.5\ngini = 0.59\nsamples = 23\nvalue = [13, 5, 19]", fillcolor="#e0cef8"] ;
684 -> 685 ;
686 [label="Week <= 21.5\ngini = 0.59\nsamples = 22\nvalue = [11, 5, 19]", fillcolor="#d5bdf6"] ;
685 -> 686 ;
687 [label="HY <= 0.5\ngini = 0.65\nsamples = 11\nvalue = [8, 5, 5]", fillcolor="#f9e2d1"] ;
686 -> 687 ;
688 [label="13 <= 0.5\ngini = 0.46\nsamples = 5\nvalue = [7, 1, 2]", fillcolor="#efb083"] ;
687 -> 688 ;
689 [label="AF <= 9.5\ngini = 0.22\nsamples = 4\nvalue = [7, 1, 0]", fillcolor="#e99355"] ;
688 -> 689 ;
690 [label="gini = 0.0\nsamples = 2\nvalue = [5, 0, 0]", fillcolor="#e58139"] ;
689 -> 690 ;
691 [label="Month <= 1.5\ngini = 0.44\nsamples = 2\nvalue = [2, 1, 0]", fillcolor="#f2c09c"] ;
689 -> 691 ;
692 [label="gini = 0.0\nsamples = 1\nvalue = [0, 1, 0]", fillcolor="#39e581"] ;
691 -> 692 ;
693 [label="gini = 0.0\nsamples = 1\nvalue = [2, 0, 0]", fillcolor="#e58139"] ;
691 -> 693 ;
694 [label="gini = 0.0\nsamples = 1\nvalue = [0, 0, 2]", fillcolor="#8139e5"] ;
688 -> 694 ;
695 [label="6_home <= 0.5\ngini = 0.59\nsamples = 6\nvalue = [1, 4, 3]", fillcolor="#d7fae6"] ;
687 -> 695 ;
696 [label="HC <= 6.5\ngini = 0.5\nsamples = 5\nvalue = [1, 4, 1]", fillcolor="#88efb3"] ;
695 -> 696 ;
697 [label="1 <= 0.5\ngini = 0.32\nsamples = 4\nvalue = [0, 4, 1]", fillcolor="#6aeca0"] ;
696 -> 697 ;
698 [label="gini = 0.0\nsamples = 3\nvalue = [0, 4, 0]", fillcolor="#39e581"] ;
697 -> 698 ;
699 [label="gini = 0.0\nsamples = 1\nvalue = [0, 0, 1]", fillcolor="#8139e5"] ;
697 -> 699 ;
700 [label="gini = 0.0\nsamples = 1\nvalue = [1, 0, 0]", fillcolor="#e58139"] ;
696 -> 700 ;
701 [label="gini = 0.0\nsamples = 1\nvalue = [0, 0, 2]", fillcolor="#8139e5"] ;
695 -> 701 ;
702 [label="35 <= 0.5\ngini = 0.29\nsamples = 11\nvalue = [3, 0, 14]", fillcolor="#9c63eb"] ;
686 -> 702 ;
703 [label="Day <= 20.5\ngini = 0.12\nsamples = 10\nvalue = [1, 0, 14]", fillcolor="#8a47e7"] ;
702 -> 703 ;
704 [label="gini = 0.0\nsamples = 6\nvalue = [0, 0, 11]", fillcolor="#8139e5"] ;
703 -> 704 ;
705 [label="AST <= 6.5\ngini = 0.38\nsamples = 4\nvalue = [1, 0, 3]", fillcolor="#ab7bee"] ;
703 -> 705 ;
706 [label="gini = 0.0\nsamples = 3\nvalue = [0, 0, 3]", fillcolor="#8139e5"] ;
705 -> 706 ;
707 [label="gini = 0.0\nsamples = 1\nvalue = [1, 0, 0]", fillcolor="#e58139"] ;
705 -> 707 ;
708 [label="gini = 0.0\nsamples = 1\nvalue = [2, 0, 0]", fillcolor="#e58139"] ;
702 -> 708 ;
709 [label="gini = 0.0\nsamples = 1\nvalue = [2, 0, 0]", fillcolor="#e58139"] ;
685 -> 709 ;
710 [label="1 <= 0.5\ngini = 0.56\nsamples = 9\nvalue = [4, 6, 1]", fillcolor="#c6f8db"] ;
684 -> 710 ;
711 [label="12 <= 0.5\ngini = 0.49\nsamples = 8\nvalue = [2, 6, 1]", fillcolor="#8ef0b7"] ;
710 -> 711 ;
712 [label="HST <= 8.5\ngini = 0.53\nsamples = 7\nvalue = [2, 5, 1]", fillcolor="#9cf2c0"] ;
711 -> 712 ;
713 [label="Month <= 8.5\ngini = 0.41\nsamples = 6\nvalue = [2, 5, 0]", fillcolor="#88efb3"] ;
712 -> 713 ;
714 [label="gini = 0.0\nsamples = 3\nvalue = [0, 4, 0]", fillcolor="#39e581"] ;
713 -> 714 ;
715 [label="AR <= 0.5\ngini = 0.44\nsamples = 3\nvalue = [2, 1, 0]", fillcolor="#f2c09c"] ;
713 -> 715 ;
716 [label="HC <= 3.5\ngini = 0.5\nsamples = 2\nvalue = [1, 1, 0]", fillcolor="#ffffff"] ;
715 -> 716 ;
717 [label="gini = 0.0\nsamples = 1\nvalue = [0, 1, 0]", fillcolor="#39e581"] ;
716 -> 717 ;
718 [label="gini = 0.0\nsamples = 1\nvalue = [1, 0, 0]", fillcolor="#e58139"] ;
716 -> 718 ;
719 [label="gini = 0.0\nsamples = 1\nvalue = [1, 0, 0]", fillcolor="#e58139"] ;
715 -> 719 ;
720 [label="gini = 0.0\nsamples = 1\nvalue = [0, 0, 1]", fillcolor="#8139e5"] ;
712 -> 720 ;
721 [label="gini = 0.0\nsamples = 1\nvalue = [0, 1, 0]", fillcolor="#39e581"] ;
711 -> 721 ;
722 [label="gini = 0.0\nsamples = 1\nvalue = [2, 0, 0]", fillcolor="#e58139"] ;
710 -> 722 ;
723 [label="gini = 0.0\nsamples = 1\nvalue = [0, 4, 0]", fillcolor="#39e581"] ;
683 -> 723 ;
724 [label="gini = 0.0\nsamples = 2\nvalue = [0, 0, 3]", fillcolor="#8139e5"] ;
682 -> 724 ;
725 [label="17 <= 0.5\ngini = 0.22\nsamples = 4\nvalue = [7, 1, 0]", fillcolor="#e99355"] ;
681 -> 725 ;
726 [label="gini = 0.0\nsamples = 3\nvalue = [7, 0, 0]", fillcolor="#e58139"] ;
725 -> 726 ;
727 [label="gini = 0.0\nsamples = 1\nvalue = [0, 1, 0]", fillcolor="#39e581"] ;
725 -> 727 ;
728 [label="gini = 0.0\nsamples = 1\nvalue = [3, 0, 0]", fillcolor="#e58139"] ;
680 -> 728 ;
729 [label="gini = 0.0\nsamples = 3\nvalue = [5, 0, 0]", fillcolor="#e58139"] ;
679 -> 729 ;
730 [label="HY <= 1.5\ngini = 0.44\nsamples = 3\nvalue = [2, 4, 0]", fillcolor="#9cf2c0"] ;
678 -> 730 ;
731 [label="gini = 0.0\nsamples = 2\nvalue = [0, 4, 0]", fillcolor="#39e581"] ;
730 -> 731 ;
732 [label="gini = 0.0\nsamples = 1\nvalue = [2, 0, 0]", fillcolor="#e58139"] ;
730 -> 732 ;
733 [label="Day <= 24.5\ngini = 0.46\nsamples = 87\nvalue = [98, 22, 19]", fillcolor="#eead7e"] ;
677 -> 733 ;
734 [label="1_home <= 0.5\ngini = 0.5\nsamples = 63\nvalue = [67, 21, 13]", fillcolor="#f0b78d"] ;
733 -> 734 ;
735 [label="2_home <= 0.5\ngini = 0.47\nsamples = 60\nvalue = [66, 20, 10]", fillcolor="#efb387"] ;
734 -> 735 ;
736 [label="19 <= 0.5\ngini = 0.44\nsamples = 58\nvalue = [66, 20, 7]", fillcolor="#efb082"] ;
735 -> 736 ;
737 [label="11 <= 0.5\ngini = 0.49\nsamples = 50\nvalue = [53, 20, 7]", fillcolor="#f1ba92"] ;
736 -> 737 ;
738 [label="15 <= 0.5\ngini = 0.47\nsamples = 49\nvalue = [53, 20, 5]", fillcolor="#f0b78e"] ;
737 -> 738 ;
739 [label="Week <= 44.5\ngini = 0.49\nsamples = 47\nvalue = [48, 20, 5]", fillcolor="#f1bc96"] ;
738 -> 739 ;
740 [label="31_home <= 0.5\ngini = 0.54\nsamples = 34\nvalue = [31, 18, 4]", fillcolor="#f5d0b5"] ;
739 -> 740 ;
741 [label="34_home <= 0.5\ngini = 0.56\nsamples = 32\nvalue = [26, 18, 4]", fillcolor="#f8ddca"] ;
740 -> 741 ;
742 [label="5_home <= 0.5\ngini = 0.58\nsamples = 28\nvalue = [18, 18, 4]", fillcolor="#ffffff"] ;
741 -> 742 ;
743 [label="7 <= 0.5\ngini = 0.59\nsamples = 26\nvalue = [16, 18, 4]", fillcolor="#edfdf4"] ;
742 -> 743 ;
744 [label="18 <= 0.5\ngini = 0.59\nsamples = 25\nvalue = [15, 18, 4]", fillcolor="#e4fbee"] ;
743 -> 744 ;
745 [label="Week <= 10.0\ngini = 0.58\nsamples = 23\nvalue = [12, 18, 4]", fillcolor="#c9f8dd"] ;
744 -> 745 ;
746 [label="Month <= 1.5\ngini = 0.24\nsamples = 4\nvalue = [1, 6, 0]", fillcolor="#5ae996"] ;
745 -> 746 ;
747 [label="HS <= 11.5\ngini = 0.32\nsamples = 3\nvalue = [1, 4, 0]", fillcolor="#6aeca0"] ;
746 -> 747 ;
748 [label="gini = 0.0\nsamples = 1\nvalue = [1, 0, 0]", fillcolor="#e58139"] ;
747 -> 748 ;
749 [label="gini = 0.0\nsamples = 2\nvalue = [0, 4, 0]", fillcolor="#39e581"] ;
747 -> 749 ;
750 [label="gini = 0.0\nsamples = 1\nvalue = [0, 2, 0]", fillcolor="#39e581"] ;
746 -> 750 ;
751 [label="AST <= 7.5\ngini = 0.61\nsamples = 19\nvalue = [11, 12, 4]", fillcolor="#f3fdf7"] ;
745 -> 751 ;
752 [label="HS <= 6.5\ngini = 0.45\nsamples = 9\nvalue = [2, 10, 2]", fillcolor="#7beeab"] ;
751 -> 752 ;
753 [label="HC <= 2.0\ngini = 0.5\nsamples = 2\nvalue = [1, 0, 1]", fillcolor="#ffffff"] ;
752 -> 753 ;
754 [label="gini = 0.0\nsamples = 1\nvalue = [0, 0, 1]", fillcolor="#8139e5"] ;
753 -> 754 ;
755 [label="gini = 0.0\nsamples = 1\nvalue = [1, 0, 0]", fillcolor="#e58139"] ;
753 -> 755 ;
756 [label="Month <= 3.5\ngini = 0.29\nsamples = 7\nvalue = [1, 10, 1]", fillcolor="#5dea98"] ;
752 -> 756 ;
757 [label="gini = 0.0\nsamples = 1\nvalue = [0, 0, 1]", fillcolor="#8139e5"] ;
756 -> 757 ;
758 [label="HY <= 1.5\ngini = 0.17\nsamples = 6\nvalue = [1, 10, 0]", fillcolor="#4de88e"] ;
756 -> 758 ;
759 [label="gini = 0.0\nsamples = 4\nvalue = [0, 8, 0]", fillcolor="#39e581"] ;
758 -> 759 ;
760 [label="AC <= 5.5\ngini = 0.44\nsamples = 2\nvalue = [1, 2, 0]", fillcolor="#9cf2c0"] ;
758 -> 760 ;
761 [label="gini = 0.0\nsamples = 1\nvalue = [1, 0, 0]", fillcolor="#e58139"] ;
760 -> 761 ;
762 [label="gini = 0.0\nsamples = 1\nvalue = [0, 2, 0]", fillcolor="#39e581"] ;
760 -> 762 ;
763 [label="14_home <= 0.5\ngini = 0.47\nsamples = 10\nvalue = [9, 2, 2]", fillcolor="#eeaf81"] ;
751 -> 763 ;
764 [label="AST <= 9.5\ngini = 0.5\nsamples = 9\nvalue = [8, 2, 2]", fillcolor="#efb388"] ;
763 -> 764 ;
765 [label="32 <= 0.5\ngini = 0.62\nsamples = 7\nvalue = [4, 2, 2]", fillcolor="#f6d5bd"] ;
764 -> 765 ;
766 [label="4 <= 0.5\ngini = 0.57\nsamples = 6\nvalue = [4, 2, 1]", fillcolor="#f5cdb0"] ;
765 -> 766 ;
767 [label="HY <= 0.5\ngini = 0.44\nsamples = 5\nvalue = [4, 2, 0]", fillcolor="#f2c09c"] ;
766 -> 767 ;
768 [label="AS <= 16.5\ngini = 0.32\nsamples = 4\nvalue = [4, 1, 0]", fillcolor="#eca06a"] ;
767 -> 768 ;
769 [label="gini = 0.0\nsamples = 2\nvalue = [3, 0, 0]", fillcolor="#e58139"] ;
768 -> 769 ;
770 [label="AST <= 8.5\ngini = 0.5\nsamples = 2\nvalue = [1, 1, 0]", fillcolor="#ffffff"] ;
768 -> 770 ;
771 [label="gini = 0.0\nsamples = 1\nvalue = [0, 1, 0]", fillcolor="#39e581"] ;
770 -> 771 ;
772 [label="gini = 0.0\nsamples = 1\nvalue = [1, 0, 0]", fillcolor="#e58139"] ;
770 -> 772 ;
773 [label="gini = 0.0\nsamples = 1\nvalue = [0, 1, 0]", fillcolor="#39e581"] ;
767 -> 773 ;
774 [label="gini = 0.0\nsamples = 1\nvalue = [0, 0, 1]", fillcolor="#8139e5"] ;
766 -> 774 ;
775 [label="gini = 0.0\nsamples = 1\nvalue = [0, 0, 1]", fillcolor="#8139e5"] ;
765 -> 775 ;
776 [label="gini = 0.0\nsamples = 2\nvalue = [4, 0, 0]", fillcolor="#e58139"] ;
764 -> 776 ;
777 [label="gini = 0.0\nsamples = 1\nvalue = [1, 0, 0]", fillcolor="#e58139"] ;
763 -> 777 ;
778 [label="gini = 0.0\nsamples = 2\nvalue = [3, 0, 0]", fillcolor="#e58139"] ;
744 -> 778 ;
779 [label="gini = 0.0\nsamples = 1\nvalue = [1, 0, 0]", fillcolor="#e58139"] ;
743 -> 779 ;
780 [label="gini = 0.0\nsamples = 2\nvalue = [2, 0, 0]", fillcolor="#e58139"] ;
742 -> 780 ;
781 [label="gini = 0.0\nsamples = 4\nvalue = [8, 0, 0]", fillcolor="#e58139"] ;
741 -> 781 ;
782 [label="gini = 0.0\nsamples = 2\nvalue = [5, 0, 0]", fillcolor="#e58139"] ;
740 -> 782 ;
783 [label="17 <= 0.5\ngini = 0.26\nsamples = 13\nvalue = [17, 2, 1]", fillcolor="#e9965a"] ;
739 -> 783 ;
784 [label="HC <= 2.5\ngini = 0.19\nsamples = 12\nvalue = [17, 1, 1]", fillcolor="#e88f4f"] ;
783 -> 784 ;
785 [label="33_home <= 0.5\ngini = 0.44\nsamples = 3\nvalue = [2, 1, 0]", fillcolor="#f2c09c"] ;
784 -> 785 ;
786 [label="HS <= 9.5\ngini = 0.5\nsamples = 2\nvalue = [1, 1, 0]", fillcolor="#ffffff"] ;
785 -> 786 ;
787 [label="gini = 0.0\nsamples = 1\nvalue = [1, 0, 0]", fillcolor="#e58139"] ;
786 -> 787 ;
788 [label="gini = 0.0\nsamples = 1\nvalue = [0, 1, 0]", fillcolor="#39e581"] ;
786 -> 788 ;
789 [label="gini = 0.0\nsamples = 1\nvalue = [1, 0, 0]", fillcolor="#e58139"] ;
785 -> 789 ;
790 [label="Day <= 12.5\ngini = 0.12\nsamples = 9\nvalue = [15, 0, 1]", fillcolor="#e78946"] ;
784 -> 790 ;
791 [label="AC <= 3.5\ngini = 0.38\nsamples = 3\nvalue = [3, 0, 1]", fillcolor="#eeab7b"] ;
790 -> 791 ;
792 [label="gini = 0.0\nsamples = 1\nvalue = [2, 0, 0]", fillcolor="#e58139"] ;
791 -> 792 ;
793 [label="25 <= 0.5\ngini = 0.5\nsamples = 2\nvalue = [1, 0, 1]", fillcolor="#ffffff"] ;
791 -> 793 ;
794 [label="gini = 0.0\nsamples = 1\nvalue = [0, 0, 1]", fillcolor="#8139e5"] ;
793 -> 794 ;
795 [label="gini = 0.0\nsamples = 1\nvalue = [1, 0, 0]", fillcolor="#e58139"] ;
793 -> 795 ;
796 [label="gini = 0.0\nsamples = 6\nvalue = [12, 0, 0]", fillcolor="#e58139"] ;
790 -> 796 ;
797 [label="gini = 0.0\nsamples = 1\nvalue = [0, 1, 0]", fillcolor="#39e581"] ;
783 -> 797 ;
798 [label="gini = 0.0\nsamples = 2\nvalue = [5, 0, 0]", fillcolor="#e58139"] ;
738 -> 798 ;
799 [label="gini = 0.0\nsamples = 1\nvalue = [0, 0, 2]", fillcolor="#8139e5"] ;
737 -> 799 ;
800 [label="gini = 0.0\nsamples = 8\nvalue = [13, 0, 0]", fillcolor="#e58139"] ;
736 -> 800 ;
801 [label="gini = 0.0\nsamples = 2\nvalue = [0, 0, 3]", fillcolor="#8139e5"] ;
735 -> 801 ;
802 [label="HY <= 1.0\ngini = 0.56\nsamples = 3\nvalue = [1, 1, 3]", fillcolor="#c09cf2"] ;
734 -> 802 ;
803 [label="gini = 0.0\nsamples = 1\nvalue = [1, 0, 0]", fillcolor="#e58139"] ;
802 -> 803 ;
804 [label="12 <= 0.5\ngini = 0.38\nsamples = 2\nvalue = [0, 1, 3]", fillcolor="#ab7bee"] ;
802 -> 804 ;
805 [label="gini = 0.0\nsamples = 1\nvalue = [0, 0, 3]", fillcolor="#8139e5"] ;
804 -> 805 ;
806 [label="gini = 0.0\nsamples = 1\nvalue = [0, 1, 0]", fillcolor="#39e581"] ;
804 -> 806 ;
807 [label="19 <= 0.5\ngini = 0.31\nsamples = 24\nvalue = [31, 1, 6]", fillcolor="#eb9d64"] ;
733 -> 807 ;
808 [label="1_home <= 0.5\ngini = 0.37\nsamples = 21\nvalue = [23, 1, 6]", fillcolor="#eda673"] ;
807 -> 808 ;
809 [label="17_home <= 0.5\ngini = 0.3\nsamples = 20\nvalue = [23, 1, 4]", fillcolor="#ea9b62"] ;
808 -> 809 ;
810 [label="HS <= 6.0\ngini = 0.26\nsamples = 19\nvalue = [23, 1, 3]", fillcolor="#e9965a"] ;
809 -> 810 ;
811 [label="7_home <= 0.5\ngini = 0.61\nsamples = 5\nvalue = [2, 1, 3]", fillcolor="#e0cef8"] ;
810 -> 811 ;
812 [label="AS <= 15.0\ngini = 0.62\nsamples = 4\nvalue = [2, 1, 1]", fillcolor="#f6d5bd"] ;
811 -> 812 ;
813 [label="gini = 0.0\nsamples = 2\nvalue = [2, 0, 0]", fillcolor="#e58139"] ;
812 -> 813 ;
814 [label="AST <= 8.0\ngini = 0.5\nsamples = 2\nvalue = [0, 1, 1]", fillcolor="#ffffff"] ;
812 -> 814 ;
815 [label="gini = 0.0\nsamples = 1\nvalue = [0, 0, 1]", fillcolor="#8139e5"] ;
814 -> 815 ;
816 [label="gini = 0.0\nsamples = 1\nvalue = [0, 1, 0]", fillcolor="#39e581"] ;
814 -> 816 ;
817 [label="gini = 0.0\nsamples = 1\nvalue = [0, 0, 2]", fillcolor="#8139e5"] ;
811 -> 817 ;
818 [label="gini = 0.0\nsamples = 14\nvalue = [21, 0, 0]", fillcolor="#e58139"] ;
810 -> 818 ;
819 [label="gini = 0.0\nsamples = 1\nvalue = [0, 0, 1]", fillcolor="#8139e5"] ;
809 -> 819 ;
820 [label="gini = 0.0\nsamples = 1\nvalue = [0, 0, 2]", fillcolor="#8139e5"] ;
808 -> 820 ;
821 [label="gini = 0.0\nsamples = 3\nvalue = [8, 0, 0]", fillcolor="#e58139"] ;
807 -> 821 ;
822 [label="gini = 0.0\nsamples = 2\nvalue = [0, 0, 4]", fillcolor="#8139e5"] ;
676 -> 822 ;
823 [label="12 <= 0.5\ngini = 0.63\nsamples = 558\nvalue = [412, 189, 255]", fillcolor="#f8decb"] ;
675 -> 823 ;
824 [label="32_home <= 0.5\ngini = 0.64\nsamples = 528\nvalue = [380, 183, 252]", fillcolor="#f9e2d2"] ;
823 -> 824 ;
825 [label="20 <= 0.5\ngini = 0.63\nsamples = 505\nvalue = [369, 174, 231]", fillcolor="#f8dfcd"] ;
824 -> 825 ;
826 [label="19_home <= 0.5\ngini = 0.64\nsamples = 465\nvalue = [327, 165, 220]", fillcolor="#f9e4d4"] ;
825 -> 826 ;
827 [label="HS <= 6.5\ngini = 0.64\nsamples = 455\nvalue = [323, 164, 207]", fillcolor="#f9e1d0"] ;
826 -> 827 ;
828 [label="AC <= 8.5\ngini = 0.45\nsamples = 48\nvalue = [56, 18, 6]", fillcolor="#efb286"] ;
827 -> 828 ;
829 [label="AS <= 19.5\ngini = 0.35\nsamples = 36\nvalue = [47, 12, 1]", fillcolor="#eca36f"] ;
828 -> 829 ;
830 [label="HS <= 5.5\ngini = 0.31\nsamples = 32\nvalue = [44, 9, 1]", fillcolor="#eb9d65"] ;
829 -> 830 ;
831 [label="34_home <= 0.5\ngini = 0.38\nsamples = 19\nvalue = [24, 8, 0]", fillcolor="#eeab7b"] ;
830 -> 831 ;
832 [label="19 <= 0.5\ngini = 0.35\nsamples = 18\nvalue = [24, 7, 0]", fillcolor="#eda673"] ;
831 -> 832 ;
833 [label="22 <= 0.5\ngini = 0.29\nsamples = 13\nvalue = [19, 4, 0]", fillcolor="#ea9c63"] ;
832 -> 833 ;
834 [label="32 <= 0.5\ngini = 0.18\nsamples = 11\nvalue = [18, 2, 0]", fillcolor="#e88f4f"] ;
833 -> 834 ;
835 [label="AY <= 2.5\ngini = 0.22\nsamples = 10\nvalue = [14, 2, 0]", fillcolor="#e99355"] ;
834 -> 835 ;
836 [label="34 <= 0.5\ngini = 0.15\nsamples = 8\nvalue = [11, 1, 0]", fillcolor="#e78c4b"] ;
835 -> 836 ;
837 [label="HC <= 5.5\ngini = 0.18\nsamples = 7\nvalue = [9, 1, 0]", fillcolor="#e88f4f"] ;
836 -> 837 ;
838 [label="gini = 0.0\nsamples = 6\nvalue = [9, 0, 0]", fillcolor="#e58139"] ;
837 -> 838 ;
839 [label="gini = 0.0\nsamples = 1\nvalue = [0, 1, 0]", fillcolor="#39e581"] ;
837 -> 839 ;
840 [label="gini = 0.0\nsamples = 1\nvalue = [2, 0, 0]", fillcolor="#e58139"] ;
836 -> 840 ;
841 [label="HS <= 3.5\ngini = 0.38\nsamples = 2\nvalue = [3, 1, 0]", fillcolor="#eeab7b"] ;
835 -> 841 ;
842 [label="gini = 0.0\nsamples = 1\nvalue = [0, 1, 0]", fillcolor="#39e581"] ;
841 -> 842 ;
843 [label="gini = 0.0\nsamples = 1\nvalue = [3, 0, 0]", fillcolor="#e58139"] ;
841 -> 843 ;
844 [label="gini = 0.0\nsamples = 1\nvalue = [4, 0, 0]", fillcolor="#e58139"] ;
834 -> 844 ;
845 [label="HF <= 14.5\ngini = 0.44\nsamples = 2\nvalue = [1, 2, 0]", fillcolor="#9cf2c0"] ;
833 -> 845 ;
846 [label="gini = 0.0\nsamples = 1\nvalue = [1, 0, 0]", fillcolor="#e58139"] ;
845 -> 846 ;
847 [label="gini = 0.0\nsamples = 1\nvalue = [0, 2, 0]", fillcolor="#39e581"] ;
845 -> 847 ;
848 [label="HY <= 1.5\ngini = 0.47\nsamples = 5\nvalue = [5, 3, 0]", fillcolor="#f5cdb0"] ;
832 -> 848 ;
849 [label="gini = 0.0\nsamples = 2\nvalue = [0, 2, 0]", fillcolor="#39e581"] ;
848 -> 849 ;
850 [label="HC <= 4.5\ngini = 0.28\nsamples = 3\nvalue = [5, 1, 0]", fillcolor="#ea9a61"] ;
848 -> 850 ;
851 [label="gini = 0.0\nsamples = 2\nvalue = [5, 0, 0]", fillcolor="#e58139"] ;
850 -> 851 ;
852 [label="gini = 0.0\nsamples = 1\nvalue = [0, 1, 0]", fillcolor="#39e581"] ;
850 -> 852 ;
853 [label="gini = 0.0\nsamples = 1\nvalue = [0, 1, 0]", fillcolor="#39e581"] ;
831 -> 853 ;
854 [label="Day <= 2.5\ngini = 0.17\nsamples = 13\nvalue = [20, 1, 1]", fillcolor="#e78d4c"] ;
830 -> 854 ;
855 [label="gini = 0.0\nsamples = 1\nvalue = [0, 1, 0]", fillcolor="#39e581"] ;
854 -> 855 ;
856 [label="34_home <= 0.5\ngini = 0.09\nsamples = 12\nvalue = [20, 0, 1]", fillcolor="#e68743"] ;
854 -> 856 ;
857 [label="1 <= 0.5\ngini = 0.11\nsamples = 10\nvalue = [16, 0, 1]", fillcolor="#e78945"] ;
856 -> 857 ;
858 [label="gini = 0.0\nsamples = 8\nvalue = [14, 0, 0]", fillcolor="#e58139"] ;
857 -> 858 ;
859 [label="Week <= 36.0\ngini = 0.44\nsamples = 2\nvalue = [2, 0, 1]", fillcolor="#f2c09c"] ;
857 -> 859 ;
860 [label="gini = 0.0\nsamples = 1\nvalue = [2, 0, 0]", fillcolor="#e58139"] ;
859 -> 860 ;
861 [label="gini = 0.0\nsamples = 1\nvalue = [0, 0, 1]", fillcolor="#8139e5"] ;
859 -> 861 ;
862 [label="gini = 0.0\nsamples = 2\nvalue = [4, 0, 0]", fillcolor="#e58139"] ;
856 -> 862 ;
863 [label="30_home <= 0.5\ngini = 0.5\nsamples = 4\nvalue = [3, 3, 0]", fillcolor="#ffffff"] ;
829 -> 863 ;
864 [label="3 <= 0.5\ngini = 0.44\nsamples = 2\nvalue = [1, 2, 0]", fillcolor="#9cf2c0"] ;
863 -> 864 ;
865 [label="gini = 0.0\nsamples = 1\nvalue = [0, 2, 0]", fillcolor="#39e581"] ;
864 -> 865 ;
866 [label="gini = 0.0\nsamples = 1\nvalue = [1, 0, 0]", fillcolor="#e58139"] ;
864 -> 866 ;
867 [label="HF <= 13.5\ngini = 0.44\nsamples = 2\nvalue = [2, 1, 0]", fillcolor="#f2c09c"] ;
863 -> 867 ;
868 [label="gini = 0.0\nsamples = 1\nvalue = [2, 0, 0]", fillcolor="#e58139"] ;
867 -> 868 ;
869 [label="gini = 0.0\nsamples = 1\nvalue = [0, 1, 0]", fillcolor="#39e581"] ;
867 -> 869 ;
870 [label="HF <= 13.5\ngini = 0.64\nsamples = 12\nvalue = [9, 6, 5]", fillcolor="#f9e4d5"] ;
828 -> 870 ;
871 [label="HC <= 1.5\ngini = 0.66\nsamples = 10\nvalue = [4, 6, 5]", fillcolor="#ebfcf2"] ;
870 -> 871 ;
872 [label="9_home <= 0.5\ngini = 0.59\nsamples = 5\nvalue = [2, 2, 5]", fillcolor="#c9aaf4"] ;
871 -> 872 ;
873 [label="AS <= 15.5\ngini = 0.53\nsamples = 4\nvalue = [1, 2, 5]", fillcolor="#c09cf2"] ;
872 -> 873 ;
874 [label="gini = 0.0\nsamples = 1\nvalue = [0, 0, 3]", fillcolor="#8139e5"] ;
873 -> 874 ;
875 [label="HS <= 4.5\ngini = 0.64\nsamples = 3\nvalue = [1, 2, 2]", fillcolor="#ffffff"] ;
873 -> 875 ;
876 [label="gini = 0.0\nsamples = 1\nvalue = [1, 0, 0]", fillcolor="#e58139"] ;
875 -> 876 ;
877 [label="3 <= 0.5\ngini = 0.5\nsamples = 2\nvalue = [0, 2, 2]", fillcolor="#ffffff"] ;
875 -> 877 ;
878 [label="gini = 0.0\nsamples = 1\nvalue = [0, 0, 2]", fillcolor="#8139e5"] ;
877 -> 878 ;
879 [label="gini = 0.0\nsamples = 1\nvalue = [0, 2, 0]", fillcolor="#39e581"] ;
877 -> 879 ;
880 [label="gini = 0.0\nsamples = 1\nvalue = [1, 0, 0]", fillcolor="#e58139"] ;
872 -> 880 ;
881 [label="Day <= 7.0\ngini = 0.44\nsamples = 5\nvalue = [2, 4, 0]", fillcolor="#9cf2c0"] ;
871 -> 881 ;
882 [label="gini = 0.0\nsamples = 2\nvalue = [0, 3, 0]", fillcolor="#39e581"] ;
881 -> 882 ;
883 [label="5 <= 0.5\ngini = 0.44\nsamples = 3\nvalue = [2, 1, 0]", fillcolor="#f2c09c"] ;
881 -> 883 ;
884 [label="gini = 0.0\nsamples = 2\nvalue = [2, 0, 0]", fillcolor="#e58139"] ;
883 -> 884 ;
885 [label="gini = 0.0\nsamples = 1\nvalue = [0, 1, 0]", fillcolor="#39e581"] ;
883 -> 885 ;
886 [label="gini = 0.0\nsamples = 2\nvalue = [5, 0, 0]", fillcolor="#e58139"] ;
870 -> 886 ;
887 [label="12_home <= 0.5\ngini = 0.65\nsamples = 407\nvalue = [267, 146, 201]", fillcolor="#fbebdf"] ;
827 -> 887 ;
888 [label="23 <= 0.5\ngini = 0.64\nsamples = 391\nvalue = [264, 137, 186]", fillcolor="#fae6d8"] ;
887 -> 888 ;
889 [label="25 <= 0.5\ngini = 0.64\nsamples = 384\nvalue = [263, 137, 175]", fillcolor="#f9e3d3"] ;
888 -> 889 ;
890 [label="11_home <= 0.5\ngini = 0.64\nsamples = 376\nvalue = [263, 134, 165]", fillcolor="#f9e0ce"] ;
889 -> 890 ;
891 [label="HST <= 2.5\ngini = 0.64\nsamples = 365\nvalue = [245, 133, 164]", fillcolor="#f9e4d5"] ;
890 -> 891 ;
892 [label="27_home <= 0.5\ngini = 0.37\nsamples = 53\nvalue = [62, 11, 7]", fillcolor="#eca26d"] ;
891 -> 892 ;
893 [label="10 <= 0.5\ngini = 0.39\nsamples = 52\nvalue = [57, 11, 7]", fillcolor="#eca471"] ;
892 -> 893 ;
894 [label="AST <= 10.5\ngini = 0.36\nsamples = 51\nvalue = [57, 11, 5]", fillcolor="#eca26c"] ;
893 -> 894 ;
895 [label="Day <= 22.0\ngini = 0.3\nsamples = 48\nvalue = [57, 8, 4]", fillcolor="#ea9a60"] ;
894 -> 895 ;
896 [label="6_home <= 0.5\ngini = 0.1\nsamples = 26\nvalue = [36, 1, 1]", fillcolor="#e68844"] ;
895 -> 896 ;
897 [label="HS <= 11.5\ngini = 0.12\nsamples = 24\nvalue = [31, 1, 1]", fillcolor="#e78945"] ;
896 -> 897 ;
898 [label="gini = 0.0\nsamples = 17\nvalue = [24, 0, 0]", fillcolor="#e58139"] ;
897 -> 898 ;
899 [label="Month <= 4.5\ngini = 0.37\nsamples = 7\nvalue = [7, 1, 1]", fillcolor="#eca06a"] ;
897 -> 899 ;
900 [label="gini = 0.0\nsamples = 4\nvalue = [6, 0, 0]", fillcolor="#e58139"] ;
899 -> 900 ;
901 [label="15 <= 0.5\ngini = 0.67\nsamples = 3\nvalue = [1, 1, 1]", fillcolor="#ffffff"] ;
899 -> 901 ;
902 [label="AY <= 1.5\ngini = 0.5\nsamples = 2\nvalue = [0, 1, 1]", fillcolor="#ffffff"] ;
901 -> 902 ;
903 [label="gini = 0.0\nsamples = 1\nvalue = [0, 0, 1]", fillcolor="#8139e5"] ;
902 -> 903 ;
904 [label="gini = 0.0\nsamples = 1\nvalue = [0, 1, 0]", fillcolor="#39e581"] ;
902 -> 904 ;
905 [label="gini = 0.0\nsamples = 1\nvalue = [1, 0, 0]", fillcolor="#e58139"] ;
901 -> 905 ;
906 [label="gini = 0.0\nsamples = 2\nvalue = [5, 0, 0]", fillcolor="#e58139"] ;
896 -> 906 ;
907 [label="13 <= 0.5\ngini = 0.48\nsamples = 22\nvalue = [21, 7, 3]", fillcolor="#f0b68c"] ;
895 -> 907 ;
908 [label="17 <= 0.5\ngini = 0.37\nsamples = 19\nvalue = [20, 5, 1]", fillcolor="#eca572"] ;
907 -> 908 ;
909 [label="13_home <= 0.5\ngini = 0.34\nsamples = 17\nvalue = [19, 4, 1]", fillcolor="#eca06a"] ;
908 -> 909 ;
910 [label="HR <= 0.5\ngini = 0.24\nsamples = 16\nvalue = [19, 2, 1]", fillcolor="#e99457"] ;
909 -> 910 ;
911 [label="18 <= 0.5\ngini = 0.36\nsamples = 11\nvalue = [11, 2, 1]", fillcolor="#eca06b"] ;
910 -> 911 ;
912 [label="AST <= 5.5\ngini = 0.38\nsamples = 10\nvalue = [10, 2, 1]", fillcolor="#eca36f"] ;
911 -> 912 ;
913 [label="33_home <= 0.5\ngini = 0.57\nsamples = 6\nvalue = [4, 2, 1]", fillcolor="#f5cdb0"] ;
912 -> 913 ;
914 [label="Week <= 49.5\ngini = 0.32\nsamples = 4\nvalue = [4, 1, 0]", fillcolor="#eca06a"] ;
913 -> 914 ;
915 [label="gini = 0.0\nsamples = 3\nvalue = [4, 0, 0]", fillcolor="#e58139"] ;
914 -> 915 ;
916 [label="gini = 0.0\nsamples = 1\nvalue = [0, 1, 0]", fillcolor="#39e581"] ;
914 -> 916 ;
917 [label="17 <= 0.5\ngini = 0.5\nsamples = 2\nvalue = [0, 1, 1]", fillcolor="#ffffff"] ;
913 -> 917 ;
918 [label="gini = 0.0\nsamples = 1\nvalue = [0, 1, 0]", fillcolor="#39e581"] ;
917 -> 918 ;
919 [label="gini = 0.0\nsamples = 1\nvalue = [0, 0, 1]", fillcolor="#8139e5"] ;
917 -> 919 ;
920 [label="gini = 0.0\nsamples = 4\nvalue = [6, 0, 0]", fillcolor="#e58139"] ;
912 -> 920 ;
921 [label="gini = 0.0\nsamples = 1\nvalue = [1, 0, 0]", fillcolor="#e58139"] ;
911 -> 921 ;
922 [label="gini = 0.0\nsamples = 5\nvalue = [8, 0, 0]", fillcolor="#e58139"] ;
910 -> 922 ;
923 [label="gini = 0.0\nsamples = 1\nvalue = [0, 2, 0]", fillcolor="#39e581"] ;
909 -> 923 ;
924 [label="19 <= 0.5\ngini = 0.5\nsamples = 2\nvalue = [1, 1, 0]", fillcolor="#ffffff"] ;
908 -> 924 ;
925 [label="gini = 0.0\nsamples = 1\nvalue = [1, 0, 0]", fillcolor="#e58139"] ;
924 -> 925 ;
926 [label="gini = 0.0\nsamples = 1\nvalue = [0, 1, 0]", fillcolor="#39e581"] ;
924 -> 926 ;
927 [label="HR <= 0.5\ngini = 0.64\nsamples = 3\nvalue = [1, 2, 2]", fillcolor="#ffffff"] ;
907 -> 927 ;
928 [label="gini = 0.0\nsamples = 1\nvalue = [0, 0, 2]", fillcolor="#8139e5"] ;
927 -> 928 ;
929 [label="Day <= 28.0\ngini = 0.44\nsamples = 2\nvalue = [1, 2, 0]", fillcolor="#9cf2c0"] ;
927 -> 929 ;
930 [label="gini = 0.0\nsamples = 1\nvalue = [0, 2, 0]", fillcolor="#39e581"] ;
929 -> 930 ;
931 [label="gini = 0.0\nsamples = 1\nvalue = [1, 0, 0]", fillcolor="#e58139"] ;
929 -> 931 ;
932 [label="31_home <= 0.5\ngini = 0.38\nsamples = 3\nvalue = [0, 3, 1]", fillcolor="#7beeab"] ;
894 -> 932 ;
933 [label="HC <= 2.5\ngini = 0.44\nsamples = 2\nvalue = [0, 2, 1]", fillcolor="#9cf2c0"] ;
932 -> 933 ;
934 [label="gini = 0.0\nsamples = 1\nvalue = [0, 0, 1]", fillcolor="#8139e5"] ;
933 -> 934 ;
935 [label="gini = 0.0\nsamples = 1\nvalue = [0, 2, 0]", fillcolor="#39e581"] ;
933 -> 935 ;
936 [label="gini = 0.0\nsamples = 1\nvalue = [0, 1, 0]", fillcolor="#39e581"] ;
932 -> 936 ;
937 [label="gini = 0.0\nsamples = 1\nvalue = [0, 0, 2]", fillcolor="#8139e5"] ;
893 -> 937 ;
938 [label="gini = 0.0\nsamples = 1\nvalue = [5, 0, 0]", fillcolor="#e58139"] ;
892 -> 938 ;
939 [label="7_home <= 0.5\ngini = 0.66\nsamples = 312\nvalue = [183, 122, 157]", fillcolor="#fdf4ee"] ;
891 -> 939 ;
940 [label="13 <= 0.5\ngini = 0.66\nsamples = 309\nvalue = [183, 122, 152]", fillcolor="#fcf2eb"] ;
939 -> 940 ;
941 [label="36_home <= 0.5\ngini = 0.65\nsamples = 298\nvalue = [182, 114, 149]", fillcolor="#fcf1e9"] ;
940 -> 941 ;
942 [label="HR <= 0.5\ngini = 0.66\nsamples = 288\nvalue = [169, 107, 148]", fillcolor="#fdf5f0"] ;
941 -> 942 ;
943 [label="HY <= 1.5\ngini = 0.66\nsamples = 260\nvalue = [145, 95, 144]", fillcolor="#fffefe"] ;
942 -> 943 ;
944 [label="6 <= 0.5\ngini = 0.65\nsamples = 115\nvalue = [50, 48, 81]", fillcolor="#e1cff9"] ;
943 -> 944 ;
945 [label="Month <= 10.5\ngini = 0.64\nsamples = 114\nvalue = [50, 45, 81]", fillcolor="#e0cef9"] ;
944 -> 945 ;
946 [label="5 <= 0.5\ngini = 0.61\nsamples = 87\nvalue = [29, 33, 70]", fillcolor="#d0b5f5"] ;
945 -> 946 ;
947 [label="5_home <= 0.5\ngini = 0.59\nsamples = 83\nvalue = [29, 27, 69]", fillcolor="#caacf4"] ;
946 -> 947 ;
948 [label="10_home <= 0.5\ngini = 0.57\nsamples = 78\nvalue = [26, 22, 69]", fillcolor="#c3a1f3"] ;
947 -> 948 ;
949 [label="30 <= 0.5\ngini = 0.55\nsamples = 75\nvalue = [26, 18, 67]", fillcolor="#c29ff2"] ;
948 -> 949 ;
950 [label="19 <= 0.5\ngini = 0.53\nsamples = 72\nvalue = [26, 14, 66]", fillcolor="#c09cf2"] ;
949 -> 950 ;
951 [label="4_home <= 0.5\ngini = 0.52\nsamples = 60\nvalue = [18, 13, 57]", fillcolor="#b991f1"] ;
950 -> 951 ;
952 [label="31 <= 0.5\ngini = 0.51\nsamples = 59\nvalue = [17, 13, 57]", fillcolor="#b78ef0"] ;
951 -> 952 ;
953 [label="Month <= 1.5\ngini = 0.5\nsamples = 58\nvalue = [16, 13, 57]", fillcolor="#b58bf0"] ;
952 -> 953 ;
954 [label="8_home <= 0.5\ngini = 0.65\nsamples = 9\nvalue = [5, 4, 3]", fillcolor="#fcefe6"] ;
953 -> 954 ;
955 [label="18 <= 0.5\ngini = 0.58\nsamples = 8\nvalue = [5, 4, 1]", fillcolor="#fbeade"] ;
954 -> 955 ;
956 [label="7 <= 0.5\ngini = 0.57\nsamples = 6\nvalue = [2, 4, 1]", fillcolor="#b0f5cd"] ;
955 -> 956 ;
957 [label="AC <= 3.5\ngini = 0.61\nsamples = 5\nvalue = [2, 3, 1]", fillcolor="#cef8e0"] ;
956 -> 957 ;
958 [label="gini = 0.0\nsamples = 1\nvalue = [0, 0, 1]", fillcolor="#8139e5"] ;
957 -> 958 ;
959 [label="AS <= 8.5\ngini = 0.48\nsamples = 4\nvalue = [2, 3, 0]", fillcolor="#bdf6d5"] ;
957 -> 959 ;
960 [label="gini = 0.0\nsamples = 2\nvalue = [0, 3, 0]", fillcolor="#39e581"] ;
959 -> 960 ;
961 [label="gini = 0.0\nsamples = 2\nvalue = [2, 0, 0]", fillcolor="#e58139"] ;
959 -> 961 ;
962 [label="gini = 0.0\nsamples = 1\nvalue = [0, 1, 0]", fillcolor="#39e581"] ;
956 -> 962 ;
963 [label="gini = 0.0\nsamples = 2\nvalue = [3, 0, 0]", fillcolor="#e58139"] ;
955 -> 963 ;
964 [label="gini = 0.0\nsamples = 1\nvalue = [0, 0, 2]", fillcolor="#8139e5"] ;
954 -> 964 ;
965 [label="32 <= 0.5\ngini = 0.43\nsamples = 49\nvalue = [11, 9, 54]", fillcolor="#a978ed"] ;
953 -> 965 ;
966 [label="19 <= 0.5\ngini = 0.39\nsamples = 44\nvalue = [9, 7, 52]", fillcolor="#a36fec"] ;
965 -> 966 ;
967 [label="Week <= 32.5\ngini = 0.38\nsamples = 42\nvalue = [8, 7, 51]", fillcolor="#a26cec"] ;
966 -> 967 ;
968 [label="35 <= 0.5\ngini = 0.31\nsamples = 27\nvalue = [2, 6, 36]", fillcolor="#9c63ea"] ;
967 -> 968 ;
969 [label="HF <= 9.5\ngini = 0.28\nsamples = 26\nvalue = [2, 5, 36]", fillcolor="#985dea"] ;
968 -> 969 ;
970 [label="AS <= 18.5\ngini = 0.46\nsamples = 11\nvalue = [1, 5, 13]", fillcolor="#b78ef0"] ;
969 -> 970 ;
971 [label="AC <= 2.5\ngini = 0.3\nsamples = 8\nvalue = [0, 3, 13]", fillcolor="#9e67eb"] ;
970 -> 971 ;
972 [label="28 <= 0.5\ngini = 0.48\nsamples = 3\nvalue = [0, 3, 2]", fillcolor="#bdf6d5"] ;
971 -> 972 ;
973 [label="gini = 0.0\nsamples = 2\nvalue = [0, 3, 0]", fillcolor="#39e581"] ;
972 -> 973 ;
974 [label="gini = 0.0\nsamples = 1\nvalue = [0, 0, 2]", fillcolor="#8139e5"] ;
972 -> 974 ;
975 [label="gini = 0.0\nsamples = 5\nvalue = [0, 0, 11]", fillcolor="#8139e5"] ;
971 -> 975 ;
