digraph Tree {
node [shape=box, style="filled, rounded", color="black", fontname=helvetica] ;
edge [fontname=helvetica] ;
0 [label="0_home <= 0.5\ngini = 0.64\nsamples = 3555\nvalue = [1665, 1390, 2531]", fillcolor="#e3d3f9"] ;
1 [label="42_home <= 0.5\ngini = 0.65\nsamples = 3365\nvalue = [1635, 1330, 2337]", fillcolor="#e7d9fa"] ;
0 -> 1 [labeldistance=2.5, labelangle=45, headlabel="True"] ;
2 [label="Month <= 5.5\ngini = 0.65\nsamples = 3298\nvalue = [1578, 1305, 2297]", fillcolor="#e6d7fa"] ;
1 -> 2 ;
3 [label="HY <= 0.5\ngini = 0.64\nsamples = 1432\nvalue = [655, 525, 1036]", fillcolor="#e0cff9"] ;
2 -> 3 ;
4 [label="(...)", fillcolor="#C0C0C0"] ;
3 -> 4 ;
373 [label="(...)", fillcolor="#C0C0C0"] ;
3 -> 373 ;
1586 [label="AS <= 14.5\ngini = 0.65\nsamples = 1866\nvalue = [923, 780, 1261]", fillcolor="#eadefb"] ;
2 -> 1586 ;
1587 [label="(...)", fillcolor="#C0C0C0"] ;
1586 -> 1587 ;
3348 [label="(...)", fillcolor="#C0C0C0"] ;
1586 -> 3348 ;
3777 [label="9 <= 0.5\ngini = 0.63\nsamples = 67\nvalue = [57, 25, 40]", fillcolor="#fae5d6"] ;
1 -> 3777 ;
3778 [label="35 <= 0.5\ngini = 0.62\nsamples = 64\nvalue = [57, 22, 38]", fillcolor="#f9e1cf"] ;
3777 -> 3778 ;
3779 [label="(...)", fillcolor="#C0C0C0"] ;
3778 -> 3779 ;
3848 [label="(...)", fillcolor="#C0C0C0"] ;
3778 -> 3848 ;
3849 [label="AY <= 1.5\ngini = 0.48\nsamples = 3\nvalue = [0, 3, 2]", fillcolor="#bdf6d5"] ;
3777 -> 3849 ;
3850 [label="(...)", fillcolor="#C0C0C0"] ;
3849 -> 3850 ;
3851 [label="(...)", fillcolor="#C0C0C0"] ;
3849 -> 3851 ;
3854 [label="HST <= 9.5\ngini = 0.48\nsamples = 190\nvalue = [30, 60, 194]", fillcolor="#b489ef"] ;
0 -> 3854 [labeldistance=2.5, labelangle=-45, headlabel="False"] ;
3855 [label="AS <= 11.5\ngini = 0.55\nsamples = 127\nvalue = [27, 47, 115]", fillcolor="#c3a0f3"] ;
3854 -> 3855 ;
3856 [label="25 <= 0.5\ngini = 0.48\nsamples = 94\nvalue = [13, 34, 96]", fillcolor="#b78ef0"] ;
3855 -> 3856 ;
3857 [label="(...)", fillcolor="#C0C0C0"] ;
3856 -> 3857 ;
3954 [label="(...)", fillcolor="#C0C0C0"] ;
3856 -> 3954 ;
3963 [label="HR <= 0.5\ngini = 0.66\nsamples = 33\nvalue = [14, 13, 19]", fillcolor="#ebe0fb"] ;
3855 -> 3963 ;
3964 [label="(...)", fillcolor="#C0C0C0"] ;
3963 -> 3964 ;
4009 [label="(...)", fillcolor="#C0C0C0"] ;
3963 -> 4009 ;
4014 [label="AC <= 0.5\ngini = 0.29\nsamples = 63\nvalue = [3, 13, 79]", fillcolor="#9a60ea"] ;
3854 -> 4014 ;
4015 [label="Day <= 28.0\ngini = 0.5\nsamples = 4\nvalue = [0, 4, 4]", fillcolor="#ffffff"] ;
4014 -> 4015 ;
4016 [label="(...)", fillcolor="#C0C0C0"] ;
4015 -> 4016 ;
4017 [label="(...)", fillcolor="#C0C0C0"] ;
4015 -> 4017 ;
4018 [label="Day <= 27.5\ngini = 0.24\nsamples = 59\nvalue = [3, 9, 75]", fillcolor="#9457e9"] ;
4014 -> 4018 ;
4019 [label="(...)", fillcolor="#C0C0C0"] ;
4018 -> 4019 ;
4060 [label="(...)", fillcolor="#C0C0C0"] ;
4018 -> 4060 ;
}