digraph Tree {
node [shape=box, style="filled, rounded", color="black", fontname="helvetica"] ;
edge [fontname="helvetica"] ;
0 [label="0_home <= 0.5\ngini = 0.64\nsamples = 3555\nvalue = [1665, 1390, 2531]", fillcolor="#e3d3f9"] ;
1 [label="42_home <= 0.5\ngini = 0.65\nsamples = 3365\nvalue = [1635, 1330, 2337]", fillcolor="#e7d9fa"] ;
0 -> 1 [labeldistance=2.5, labelangle=45, headlabel="True"] ;
2 [label="Month <= 3.5\ngini = 0.65\nsamples = 3298\nvalue = [1578, 1305, 2297]", fillcolor="#e6d7fa"] ;
1 -> 2 ;
3 [label="AF <= 10.5\ngini = 0.64\nsamples = 913\nvalue = [398, 348, 670]", fillcolor="#ddcaf8"] ;
2 -> 3 ;
4 [label="(...)", fillcolor="#C0C0C0"] ;
3 -> 4 ;
419 [label="(...)", fillcolor="#C0C0C0"] ;
3 -> 419 ;
1072 [label="HST <= 4.5\ngini = 0.65\nsamples = 2385\nvalue = [1180, 957, 1627]", fillcolor="#e9ddfb"] ;
2 -> 1072 ;
1073 [label="(...)", fillcolor="#C0C0C0"] ;
1072 -> 1073 ;
2092 [label="(...)", fillcolor="#C0C0C0"] ;
1072 -> 2092 ;
3927 [label="Month <= 3.5\ngini = 0.63\nsamples = 67\nvalue = [57, 25, 40]", fillcolor="#fae5d6"] ;
1 -> 3927 ;
3928 [label="10 <= 0.5\ngini = 0.41\nsamples = 15\nvalue = [20, 2, 5]", fillcolor="#eda978"] ;
3927 -> 3928 ;
3929 [label="(...)", fillcolor="#C0C0C0"] ;
3928 -> 3929 ;
3948 [label="(...)", fillcolor="#C0C0C0"] ;
3928 -> 3948 ;
3949 [label="HY <= 0.5\ngini = 0.65\nsamples = 52\nvalue = [37, 23, 35]", fillcolor="#fefbf8"] ;
3927 -> 3949 ;
3950 [label="(...)", fillcolor="#C0C0C0"] ;
3949 -> 3950 ;
3971 [label="(...)", fillcolor="#C0C0C0"] ;
3949 -> 3971 ;
4010 [label="AST <= 5.5\ngini = 0.48\nsamples = 190\nvalue = [30, 60, 194]", fillcolor="#b489ef"] ;
0 -> 4010 [labeldistance=2.5, labelangle=-45, headlabel="False"] ;
4011 [label="25 <= 0.5\ngini = 0.4\nsamples = 157\nvalue = [12, 47, 175]", fillcolor="#a977ed"] ;
4010 -> 4011 ;
4012 [label="56 <= 0.5\ngini = 0.37\nsamples = 147\nvalue = [11, 39, 169]", fillcolor="#a470ec"] ;
4011 -> 4012 ;
4013 [label="(...)", fillcolor="#C0C0C0"] ;
4012 -> 4013 ;
4120 [label="(...)", fillcolor="#C0C0C0"] ;
4012 -> 4120 ;
4123 [label="AF <= 16.5\ngini = 0.55\nsamples = 10\nvalue = [1, 8, 6]", fillcolor="#d3f9e3"] ;
4011 -> 4123 ;
4124 [label="(...)", fillcolor="#C0C0C0"] ;
4123 -> 4124 ;
4129 [label="(...)", fillcolor="#C0C0C0"] ;
4123 -> 4129 ;
4130 [label="HST <= 4.5\ngini = 0.66\nsamples = 33\nvalue = [18, 13, 19]", fillcolor="#fbf9fe"] ;
4010 -> 4130 ;
4131 [label="AC <= 5.5\ngini = 0.4\nsamples = 7\nvalue = [9, 1, 2]", fillcolor="#eda774"] ;
4130 -> 4131 ;
4132 [label="(...)", fillcolor="#C0C0C0"] ;
4131 -> 4132 ;
4137 [label="(...)", fillcolor="#C0C0C0"] ;
4131 -> 4137 ;
4138 [label="28 <= 0.5\ngini = 0.64\nsamples = 26\nvalue = [9, 12, 17]", fillcolor="#e7d9fa"] ;
4130 -> 4138 ;
4139 [label="(...)", fillcolor="#C0C0C0"] ;
4138 -> 4139 ;
4172 [label="(...)", fillcolor="#C0C0C0"] ;
4138 -> 4172 ;
}